tree
version=v4
num_class=3
num_tree_per_iteration=3
label_index=0
max_feature_idx=11
objective=multiclass num_class:3
feature_names=weight_grams delta_w delta_w_10 rolling_std_5 rolling_std_10 rolling_mean_5 net_weight is_plateau plateau_duration hour_sin hour_cos clock_invalid
feature_infos=[0:277] [-277:199] [-180:210] [0:133.4383752898693] [0:113.42883231348193] [0:246] [-177:277] [0:1] [0:1500] [-1:0.99999995769202532] [-0.99999998942300627:0.99999998942300627] [0:1]
tree_sizes=6719 5336 9650 7696 4234 6151 7502 5042 7195 8000 5787 7154 7790 5073 7156 6673 4656 7915 6892 5501 8627 7410 4761 10428 6463 4654 8643 7200 4973 9372 8371 4452 8075 6460 4675 6977 6041 5066 8701 5949 4769 8460 7625 4450 7826 9333 5073 8357 7732 5187 9384 7502 5095 9174 7667 4960 9539 9100 4997 9480 9071 4554 6890 7954 3929 8411 8396 4120 10077 8409 4337 8785 7953 4554 9647 7509 4452 8888 7942 5070 11208 7943 5170 8428 10062 5292 10474 8039 4166 8740 8960 4664 8782 10099 4457 9191 7797 4347 11427 8232 4450 10875 8763 4585 10038 11974 4473 8690 12076 4757 11016 11921 4868 10583 12181 3835 11019 12218 4237 11217 10788 4368 7929 9936 4762 12122 10259 4132 11890 10503 4143 11801 11589 4451 11687 11680 4243 7355 11758 4450 13575 12308 4159 13567 12245 4437 13580 11909 4054 12318 10324 4260 13583 10159 3930 11197 10252 4050 10486 10758 4281 13569 10269 4184 13290 11219 4145 8711 9921 4538 11466 11535 3936 8995 11024 3938 11786 12189 3947 10659 13622 3950 11151 13413 4682 11609 12885 4599 11057 13531 4248 11173 12322 3938 11824 11876 4165 13631 10409 3830 12635 10519 4467 13623 11756 4713 9171 10205 4999 11498 12719 3745 13590 13615 3416 13610 12983 3423 11918 10297 4170 13303 13655 4157 13615 13090 4156 13652 13668 4152 13634 13353 3435 10425 13604 4082 12561 13611 3858 10431 13625 3103 12819 13624 4256 10103 13620 3949 13686 13312 4374 10393 13616 3205 13652 12025 3842 13682 12750 3752 13639 13647 3317 13600 12568 3505 10979 12571 4156 13673 12769 3977 13622 11783 3977 13652 12989 3976 13647 13440 3871 13687 11163 4073 10763 11246 4487 13245 13251 3857 13661 13346 4083 12092 13250 4495 12832 13141 4395 13277 13696 2901 11653 13693 3210 11940 13432 3451 12888 13646 4860 13642 13006 4179 13657

Tree=0
num_leaves=65
num_cat=0
split_feature=3 3 9 9 2 7 7 5 2 8 9 9 0 0 9 9 0 5 8 5 8 9 9 0 0 0 8 0 0 9 0 0 4 2 9 9 8 4 9 8 9 9 8 0 9 8 8 9 9 9 9 9 0 9 0 9 6 6 4 8 0 9 9 9
split_gain=6490.8 1102.6 141.729 614.858 110.747 83.3328 216.093 60.0961 38.6648 33.615 54.8986 276.771 26.3243 24.9793 22.673 23.9896 18.6063 13.9645 13.0415 8.89405 5.7911 17.9104 23.5145 11.2277 19.5839 5.38256 4.91018 4.79577 23.0257 5.22109 4.89529 23.8078 5.28815 4.42951 3.92525 3.6033 2.52869 2.47843 1.81589 8.26544 4.7512 18.8184 12.1303 5.6519 3.23516 2.6293 21.812 34.3578 3.60672 23.5917 2.64482 1.65577 1.64487 1.56538 3.47723 1.37838 0.866599 3.30737 1.65577 0.540218 3.85056 0.518992 3.07937 0.492178
threshold=0.81516377480969238 14.819685485979763 0.67874731358180773 0.73602324653950446 -1.7810086037073065 1.0000000180025095e-35 0.9330741867185649 204.10000000000002 -25.499999999999996 32.500000000000007 -0.6513813755373995 -0.7152608798885095 94.729544845435512 170.50000000000003 -0.73229533133811076 0.76716514978672445 108.50000000000001 226.00000000000003 40.500000000000007 116.10000000000001 10.500000000000002 0.8740373472823314 0.89588950087315256 109.50000000000001 108.50000000000001 245.00000000000003 1456.5000000000002 172.50000000000003 221.50000000000003 0.074289794120492317 167.42597262562504 144.36129369806477 52.172202809452621 -141.54939447350384 -0.72384580150216138 0.49258178676971281 18.376964631038604 6.0249478503131044 0.43827308676331278 606.50000000000011 -0.62231541772351717 0.30171129762085214 639.50000000000011 165.44273496323203 -0.75728006006663651 108.50000000000001 98.500000000000014 0.037079744081808419 -0.41045361332760827 -0.43306923707026412 -0.61250473592043753 -1.0000000180025095e-35 218.50000000000003 -0.9371805518622438 223.4292391556364 0.42709485722755375 84.882800752542693 88.000000000000014 42.110997507908927 715.50000000000011 145.25052238755171 0.48172181005475539 0.41595015277067032 -0.16042604268461472
decision_type=2 2 2 2 2 2 2 2 2 2 2 2 2 2 2 2 2 2 2 2 2 2 2 2 2 2 2 2 2 2 2 2 2 2 2 2 2 2 2 2 2 2 2 2 2 2 2 2 2 2 2 2 2 2 2 2 2 2 2 2 2 2 2 2
left_child=4 2 5 -4 14 8 -7 19 -2 10 11 34 -10 -13 -1 16 -16 -9 27 -5 21 23 -23 24 -12 -22 38 30 -29 -30 31 37 -32 51 -6 61 -36 -18 39 44 43 42 52 59 -11 46 50 -48 49 -47 -46 -3 -42 54 -45 -50 -35 58 -58 -41 -61 62 -28 -27
right_child=1 33 3 7 9 6 -8 17 12 26 20 13 -14 -15 15 -17 18 -19 -20 -21 25 22 -24 -25 -26 63 35 28 29 -31 32 -33 -34 56 36 -37 -38 -39 -40 40 41 -43 -44 53 45 48 47 -49 55 -51 -52 -53 -54 -55 -56 -57 57 -59 -60 60 -62 -63 -64 -65
leaf_value=-2.4377469501929974 -2.4308489843091587 -2.4308489843091587 -2.4402371419220317 -2.4281278983872792 -2.4407641499354567 -2.4384325810450913 -2.3153952725086206 -2.4345916694835803 -2.4298528578449781 -2.4414490901520129 -2.4368821048442388 -2.4305605924533267 -2.2914138401421291 -2.3108406354159148 -2.4352092540088726 -2.4369433549304653 -2.3745665525829653 -2.3737618112577303 -2.4333144842507446 -2.2902469639383942 -2.4406305462485753 -2.3634762410701087 -2.4357279321210488 -2.4407143665105568 -2.3737618112577303 -2.4286046256057658 -2.4061893084969626 -2.4366884810206053 -2.3634762410701087 -2.429464116805844 -2.3438396321001682 -2.4358218568835102 -2.4286046256057658 -2.4405991566266096 -2.4038281289215671 -2.4359128665974259 -2.4327084108427308 -2.4286046256057658 -2.4410243527184985 -2.4403209543006383 -2.4158555797526069 -2.4390745509227343 -2.374222396733467 -2.4358218568835102 -2.4332407326583438 -2.439199510132215 -2.4397431236437326 -2.3942056954819524 -2.4409554730893608 -2.4134072656375167 -2.4405063994672505 -2.4038281289215671 -2.4345916694835803 -2.4038281289215671 -2.4072627908846504 -2.4296990556623856 -2.4308489843091587 -2.4375475082250171 -2.4038281289215671 -2.4109775156722688 -2.4380897264329011 -2.4038281289215671 -2.4345916694835803 -2.4082732522853521
leaf_weight=5.4242506027221671 0.69885402917861839 0.69885402917861938 18.178861677646637 0.15722465515136974 29.706802904605865 6.9885402917861965 22.55654114484787 2.1225328445434566 0.47167396545410056 374.69826287031174 4.087841033935546 0.62889862060546686 123.25782465934753 7.430680513381958 2.5155944824218812 4.1664533615112296 7.4101196527481132 1.0910183787345884 1.4936342239379872 31.206802070140839 82.73207825422287 1.4546911716461171 2.908656120300293 28.083314895629883 1.0910183787345884 0.23583698272705078 0.52089744806289662 3.8520040512084952 1.4546911716461179 0.39306163787841786 3.2238316535949703 2.9872684478759766 0.23583698272705067 24.896237254142765 0.36367279291153209 3.0658807754516602 1.2577972412109373 0.23583698272705067 678.82159292697906 19.417244911193855 1.4642453789710992 9.1976423263549787 2.0049774646759033 2.9872684478759775 29.990966081619263 155.07435697317123 13.049646377563478 10.033715307712553 367.53568691015244 13.944497048854826 124.85621082782745 0.36367279291152843 2.122532844543457 0.36367279291152854 0.59950977563858021 5.4648171663284293 0.69885402917861827 5.0665166974067688 0.36367279291152954 0.9139590859413137 6.1317615509033203 0.36367279291152943 2.122532844543457 0.67812210321426292
leaf_count=69 1 1 34 2 370 10 102 27 6 4747 52 8 405 22 32 53 58 3 19 96 1033 4 37 231 3 3 3 49 4 5 12 38 3 80 1 39 16 3 8586 247 15 117 11 38 367 1943 166 95 4574 152 1581 1 27 1 4 58 1 25 1 8 78 1 27 5
internal_value=-2.42706 -2.32876 -2.31197 -2.34655 -2.4386 -2.30131 -2.34337 -2.29926 -2.29281 -2.43922 -2.4304 -2.41042 -2.29198 -2.31902 -2.40342 -2.39649 -2.38919 -2.40142 -2.38352 -2.29096 -2.43705 -2.43031 -2.39923 -2.43573 -2.41244 -2.43994 -2.43999 -2.37954 -2.4066 -2.37147 -2.37249 -2.39169 -2.34807 -2.43729 -2.439 -2.42314 -2.41698 -2.37621 -2.44005 -2.43945 -2.43086 -2.42201 -2.39816 -2.43521 -2.43979 -2.43889 -2.4365 -2.41891 -2.43964 -2.43694 -2.4392 -2.41247 -2.42567 -2.41653 -2.42567 -2.44081 -2.43898 -2.43068 -2.41247 -2.43854 -2.43179 -2.41178 -2.42242 -2.41098
internal_weight=0 238.818 206.73 52.7564 2018.8 153.973 29.5451 34.5776 124.428 1985.4 160.659 39.3879 123.729 8.05958 33.3926 27.9683 23.8019 3.21355 21.2863 31.364 121.272 37.6255 4.36335 33.2622 5.17886 83.646 1824.75 19.7927 5.69976 1.84775 14.0929 10.6332 3.45967 32.0878 31.3283 6.07298 1.62147 7.64596 1818.67 1139.85 45.2028 14.7894 5.59176 30.4134 1094.65 719.95 177.931 23.0834 542.019 169.019 154.847 1.06253 3.58678 3.95045 3.58678 373.001 31.0253 6.12904 1.06253 26.463 7.04572 3.0071 2.64343 0.913959
internal_count=25810 795 686 162 25015 524 112 128 412 24670 1785 417 411 30 345 276 223 30 191 98 1368 327 41 286 55 1041 22885 172 58 9 114 99 15 109 387 70 17 61 22815 14229 546 170 53 376 13683 8936 2209 261 6727 2095 1948 2 42 43 42 4632 107 27 2 333 86 31 30 8
is_linear=0
shrinkage=1


Tree=1
num_leaves=51
num_cat=0
split_feature=4 9 3 2 10 10 9 9 3 10 6 10 9 9 1 10 6 4 9 9 4 2 10 9 8 9 8 8 6 9 3 8 8 9 9 10 10 9 8 8 10 10 10 8 8 8 10 10 10 10
split_gain=3453.44 641.245 589.509 500.985 567.607 924.454 242.229 289.325 115.803 107.078 50.5381 87.2876 96.27 44.2908 34.0896 41.8567 34.0585 27.2186 24.6819 23.4983 22.4707 19.7875 16.9528 24.1552 35.2732 25.1808 19.1189 12.8053 12.7216 11.6736 11.3646 10.7065 8.60598 7.70084 7.63449 7.58601 5.07541 16.057 6.7957 14.1644 18.9662 9.2161 3.37535 1.42887 1.37994 1.11824 0.674677 6.88164 0.583696 7.2291
threshold=10.722994732022416 0.72769793782089287 1.0000000180025095e-35 -3.8369594673044118 -0.025413620846505364 -0.81472739448971809 -0.085779197948535682 0.75179182470341643 8.3516331328036522 0.98124362948431199 2.8740351552610828 0.97025172695741879 -0.19769298378351605 -0.9544249888322015 -5.9320973476324248 -0.83472774492193402 41.644688642838993 4.0173206819741329 0.88519071353197354 -0.20922746078932911 64.655611895528907 -1.7810086037073065 -0.98987453059520025 1.0000000180025095e-35 193.50000000000003 -0.098704649636753281 373.50000000000006 301.50000000000006 93.000000000000014 -0.23287962002963955 4.3817804600413632 214.50000000000003 2.0460520435890461 -0.75728006006663651 -0.85651114569761522 -0.99992756829942242 -0.69195944339767224 0.71987001841693476 226.50000000000003 304.50000000000006 -0.94079451487231947 -0.70767219783180135 0.64398454865053323 545.50000000000011 482.50000000000006 100.50000000000001 0.9445675347699336 0.94865771545726696 0.97340425390991892 0.97025172695741879
decision_type=2 2 2 2 2 2 2 2 2 2 2 2 2 2 2 2 2 2 2 2 2 2 2 2 2 2 2 2 2 2 2 2 2 2 2 2 2 2 2 2 2 2 2 2 2 2 2 2 2 2
left_child=2 9 10 8 5 -5 34 -8 14 13 22 -12 28 -2 15 17 -6 30 19 -10 -15 -18 23 24 -1 -26 27 31 29 -13 -4 -27 33 42 45 -29 37 38 -34 40 -40 -41 -24 44 -39 -7 -38 -48 49 -49
right_child=1 -3 3 4 16 6 7 -9 18 -11 11 12 -14 20 -16 -17 21 -19 -20 -21 -22 -23 32 -25 25 26 -28 35 -30 -31 -32 -33 36 -35 -36 -37 46 43 39 41 -42 -43 -44 -45 -46 -47 47 48 -50 -51
leaf_value=-3.4178957388954583 -3.4080266768379408 -3.4154923315306998 -3.4085871177943696 -3.4176757301935181 -3.4186755686736685 -3.4076553783088759 -3.0783689938330454 -3.4117011161024129 -3.4093035582762736 -3.4094645957591938 -3.4181915832612058 -3.4078437217894075 -3.4144721656651491 -3.1101692642807612 -3.4199636481660569 -3.4161471094299958 -3.4118237872126449 -3.4114809049020587 -3.4100677712197194 -3.2630319154850587 -3.4074614047864595 -3.319286605315487 -3.4093212331759077 -3.4193896826325743 -3.4145516437956949 -3.3577186524944644 -3.4121518387821603 -3.4083773208775199 -3.4080266768379408 -3.2434626288119404 -3.2883986170866089 -3.4141488922688081 -3.420324845409878 -3.4139777124297566 -3.4126339040933664 -3.3065979954579658 -3.4203453586749846 -3.4078437217894075 -3.4181193163077892 -3.4183735134338691 -3.3818403274883821 -3.3873962197043799 -3.3585711977088888 -3.4080266768379408 -3.3577186524944644 -3.3577186524944644 -3.39472811591952 -3.4192898519237165 -3.4201186449704051 -3.3919721646267602
leaf_weight=8.0742833912372607 0.18777403235436096 3.3647184371948233 0.28955724835395835 7.3249220252037075 12.086824223399161 0.12518268823623646 8.9028711318969673 1.0877414494752891 0.43433587253093731 0.46943508088588615 9.2948146015405637 0.1564783602952956 2.4764507561922064 17.103541031479843 39.175351962447166 4.1476884931325904 1.130736857652664 1.0134503692388532 0.61041016876697529 1.1128588914871207 0.09388701617717643 0.55642944574355979 0.43813940882682834 20.174586996436119 2.5349494367837906 0.27821472287177895 1.2518268823623655 0.25036537647247348 0.18777403235435475 1.4223692864179609 0.83464416861534119 2.2532883882522583 87.36201311647892 2.1438980996608725 1.4477862417697913 2.302094429731369 495.46376140415668 0.15647836029529472 8.9701581448316592 61.422639980912209 10.646339133381842 2.3124334067106238 0.30951039493083954 0.18777403235435486 0.2782147228717804 0.2782147228717804 3.5329646170139304 18.527037858963016 51.571464017033577 3.000938192009925
leaf_count=258 6 64 2 60 107 4 32 13 3 15 297 5 61 126 367 31 18 7 5 4 3 2 14 583 81 1 40 8 6 6 3 72 2777 54 10 42 15628 5 283 1904 305 66 2 6 1 1 105 592 1637 88
internal_value=-3.40684 -3.1652 -3.41231 -3.36141 -3.3039 -3.23887 -3.14268 -3.10942 -3.40375 -3.12191 -3.41756 -3.38161 -3.32351 -3.11468 -3.41274 -3.37539 -3.40421 -3.33004 -3.30263 -3.28233 -3.11169 -3.35037 -3.41824 -3.40513 -3.38863 -3.36486 -3.34789 -3.33504 -3.25966 -3.25121 -3.30065 -3.389 -3.4189 -3.39133 -3.38342 -3.31287 -3.41904 -3.4158 -3.41645 -3.41217 -3.39794 -3.41669 -3.36847 -3.36598 -3.36176 -3.361 -3.41998 -3.41734 -3.41872 -3.41454
internal_weight=0 21.2194 877.54 80.559 32.9407 19.1667 11.8418 9.99061 47.6183 17.8546 796.981 13.5379 4.24307 17.3852 45.4607 6.28534 13.774 2.13765 2.1576 1.54719 17.1974 1.68717 783.443 37.1196 16.945 8.87074 6.33579 5.08396 1.76662 1.57885 1.1242 2.5315 746.324 2.89155 1.85118 2.55246 743.432 171.336 170.714 83.3516 19.6165 63.7351 0.74765 0.622467 0.434693 0.403397 572.096 76.6324 73.0994 21.528
internal_count=25810 214 25596 669 247 120 60 45 422 150 24927 375 78 135 410 43 127 12 12 7 129 20 24552 1085 502 244 163 123 17 11 5 73 23467 70 15 50 23397 5347 5335 2558 588 1970 16 12 6 5 18050 2422 2317 680
is_linear=0
shrinkage=1


Tree=2
num_leaves=92
num_cat=0
split_feature=4 7 8 5 10 10 6 8 10 0 9 4 6 1 10 8 0 6 10 6 6 10 9 9 6 9 6 9 0 8 0 2 0 2 2 0 10 9 9 8 9 9 10 8 9 8 9 10 9 0 8 10 6 10 9 8 9 9 8 9 0 8 2 0 2 10 9 0 0 0 2 9 10 0 0 0 8 9 8 8 10 10 10 10 10 10 10 10 10 10 10
split_gain=8259.64 440.42 70.0243 69.7078 64.9089 80.6851 61.449 55.709 94.1097 65.3283 52.2044 42.2448 34.5642 40.4998 31.1025 45.3115 42.5549 25.0391 40.9599 28.1246 23.1943 19.4289 22.7496 19.4243 17.6505 16.5043 14.8712 13.3398 14.3872 13.2668 20.4215 11.1326 17.794 10.8678 10.5813 10.5769 9.9862 9.13447 7.77724 5.47816 26.357 124.291 7.573 9.97747 15.0528 33.8128 37.3733 8.68907 5.36037 5.28799 5.26331 5.09209 4.86622 4.85236 33.2789 7.15138 7.00434 4.32723 7.95309 3.55267 3.41456 12.3517 3.16455 3.15106 3.31187 3.48488 3.12272 3.36148 3.04599 2.51813 2.45327 2.43036 2.14227 1.82957 1.38881 1.36228 1.12057 1.05061 0.699107 3.66374 1.72397 1.60331 1.60135 12.3152 1.16136 1.78772 0.868455 2.29614 0.132122 0.016596 4.43193
threshold=1.0000000180025095e-35 0.9330741867185649 20.500000000000004 97.100000000000009 0.47239053125898317 0.72562461584183513 2.8740351552610828 307.50000000000006 0.6723129736977661 132.50000000000003 -0.72384580150216138 60.033502005581951 -4.749999999999992 1.7248997009130671 -0.99747188198832692 108.50000000000001 162.50000000000003 19.500000000000004 0.8071320760909465 89.15000000000002 89.15000000000002 -0.99887440526539295 -1.0000000180025095e-35 -0.84987353120979192 -3.8500000000000081 -0.23287962002963955 76.500000000000014 0.18327223642730442 109.50000000000001 364.50000000000006 218.50000000000003 -3.8369594673044118 167.42597262562504 -2.4560772494811629 -1.0000000180025095e-35 245.00000000000003 0.30358271003856524 -0.098704649636753281 0.061992135454488902 36.500000000000007 -0.66076619259386138 -0.69739966244207785 -0.81472739448971809 226.50000000000003 -0.39881575414309317 328.14294396061467 -0.4990550142209324 -0.90949324865748926 -0.75728006006663651 211.50000000000003 283.50000000000006 0.99926848647959987 -1.9000000000000055 -0.84133394310126874 0.53499761953343061 747.50000000000011 0.30171129762085214 -0.048268679194724266 301.50000000000006 -0.76560018391294038 100.50000000000001 193.50000000000003 -1.0000000180025095e-35 102.50000000000001 -17.499999999999996 -0.99992756829942242 0.74384998968867266 167.42597262562504 197.23343409872351 197.23343409872351 -2.4560772494811629 0.012071567424830751 -0.90450167090646827 225.50000000000003 223.4292391556364 125.15678171353464 235.50000000000003 -0.53099809092476358 436.50000000000006 442.50000000000006 -0.62948991636111618 -0.64770444611552558 -0.69195944339767224 -0.70767219783180135 0.99139733254989448 0.99298271613731315 0.20787612409248246 0.37507852787971069 0.6632189559571332 0.98586231358396625 0.98970349416910586
decision_type=2 2 2 2 2 2 2 2 2 2 2 2 2 2 2 2 2 2 2 2 2 2 2 2 2 2 2 2 2 2 2 2 2 2 2 2 2 2 2 2 2 2 2 2 2 2 2 2 2 2 2 2 2 2 2 2 2 2 2 2 2 2 2 2 2 2 2 2 2 2 2 2 2 2 2 2 2 2 2 2 2 2 2 2 2 2 2 2 2 2 2
left_child=2 3 4 -2 21 10 62 8 12 -10 48 35 36 27 15 16 -4 18 34 -19 25 22 -1 -9 73 -8 -12 28 33 57 71 32 -30 -14 -11 -5 63 -27 -18 40 41 -16 43 60 45 46 50 -48 59 -25 -45 -26 66 55 -55 76 -57 58 -17 -6 61 -41 70 -3 -65 -66 -29 -68 77 -60 -7 -31 -70 -20 -51 -73 -46 -47 -44 80 81 -80 83 -81 88 -86 -82 -88 -84 -64 -91
right_child=1 7 14 11 5 6 20 23 9 17 26 -13 13 -15 39 29 38 19 24 -21 -22 -23 -24 49 51 37 -28 52 31 30 -32 -33 -34 -35 -36 -37 -38 -39 -40 42 -42 -43 78 44 53 68 47 -49 -50 74 -52 -53 -54 54 -56 56 -58 -59 69 -61 -62 -63 89 64 65 -67 67 -69 72 -71 -72 75 -74 -75 -76 -77 -78 -79 79 82 86 -83 84 -85 85 -87 87 -89 -90 90 -92
leaf_value=-0.11938979699280995 -0.12172885639295275 -0.12804077764288432 -0.11957435408923489 -0.2315567529785835 -0.124628501044188 -0.12334483067401596 -0.12394415365104544 -0.1254173475612031 -0.11957435408923489 -0.20764292221427483 -0.21565288070874356 -0.12363488619141072 -0.1242746071979822 -0.19235162607779938 -0.1154894129482114 -0.11898033337440161 -0.20461973368727349 -0.22731769626582327 -0.17673803945596739 -0.124628501044188 -0.12136801918801433 -0.11480116045257392 -0.18336314954161673 -0.22452873696143688 -0.11788428821855626 -0.2019740723299206 -0.12585873466315811 -0.12212849816340968 -0.11913595612376057 -0.17877933845763516 -0.11833155436845022 -0.11771583596162932 -0.16655414368854071 -0.18730330265592829 -0.1263366070709992 -0.12742153373628426 -0.1254173475612031 -0.12633660707099917 -0.12685568366104161 -0.11738912700909659 -0.11470094685385161 -0.20919357791399962 -0.11497733379576407 -0.11756249232056409 -0.12711598042184302 -0.12674877173555499 -0.1254173475612031 -0.18748649415098295 -0.11977278887594298 -0.12585873466315811 -0.15079456921874387 -0.15079456921874387 -0.11640445037021356 -0.18226724784677251 -0.11633084466333682 -0.15631858391538478 -0.12498370641803613 -0.11517604006362257 -0.16422560827870544 -0.16090642586345588 -0.11474373523488446 -0.16422560827870544 -0.1156628773528408 -0.12804077764288432 -0.12804077764288432 -0.1983938648195733 -0.1575749394013338 -0.1242746071979822 -0.12363488619141072 -0.1263366070709992 -0.15079456921874387 -0.14554709792827633 -0.14932414510260236 -0.12804077764288432 -0.15079456921874387 -0.124628501044188 -0.11645732658681161 -0.11559583455151724 -0.124628501044188 -0.1161831681800788 -0.11856823347633695 -0.14796761248623286 -0.11512242926809978 -0.14132763196804232 -0.13728442867338359 -0.11957435408923489 -0.14345125052155172 -0.12366324312665544 -0.11770146212570674 -0.14554709792827636 -0.11701406609530848
leaf_weight=3.9592952877283096 2.0838396251201621 0.2083839625120153 3.7509113252162916 273.10854907333851 0.93772783130407344 1.3544957563281057 1.1461117938160894 0.72934386879205604 3.7509113252162924 8.6498598083853704 8.4025241881608927 1.2503037750720967 1.0419198125600817 3.7908256649970999 23.443195782601837 4.4802551940083495 4.3380742371082306 16.379377454519275 2.3448009192943569 0.93772783130407233 2.2922235876321793 58.139125540852547 1.9280329942703236 12.900935500860212 6.4599028378725043 5.6342386230826378 0.62515188753604967 1.8754556626081491 4.2718712314963376 2.0608921498060213 5.5221750065684319 6.8766707628965351 5.4968490228056908 2.4764708206057575 0.52095990628004329 0.31257594376802345 0.72934386879205693 0.52095990628003885 0.41676792502403248 7.8143985942006093 73.038578860461712 5.3020907342433921 1348.7969791516662 7.2934386879205704 5.0664554238319388 5.2748393863439587 0.72934386879205693 6.5158213600516302 3.542527362704277 0.62515188753604778 0.48200824856758107 0.48200824856758107 12.398845769464968 1.8525081872940052 12.919805675745009 1.5891683846712101 12.112558491528032 32.507898151874542 0.92625409364700295 1.1346380561590186 200.53061226010323 0.92625409364700306 20.213244363665584 0.2083839625120153 0.20838396251201619 6.2398185655474672 1.4849764034152033 1.0419198125600813 1.2503037750720976 0.52095990628004074 0.48200824856758018 0.89877617359161355 0.58620022982358833 0.20838396251201619 0.48200824856758118 0.93772783130407333 147.05717840045691 21.359356157481674 0.93772783130407333 46.013904057443142 5.1054070815443966 0.69039221107959814 399.38148982822895 7.6872591376304618 1.9406959861516941 3.7509113252162933 1.1071601361036281 7.6712549552321434 77.675603367388248 0.89877617359161277 9.1688943505287153
leaf_count=38 20 2 36 611 9 13 11 7 36 25 19 12 10 11 225 43 9 22 8 9 22 558 4 24 62 11 6 18 41 4 53 66 31 5 5 3 7 5 4 75 701 11 12889 70 45 47 7 25 34 6 1 1 119 2 124 8 109 312 1 3 1921 1 194 2 2 20 7 10 12 5 1 5 2 2 1 9 1392 205 9 438 49 3 3815 58 15 36 7 70 731 5 88
internal_value=-0.129473 -0.216782 -0.117173 -0.230023 -0.132032 -0.147364 -0.132366 -0.179906 -0.172074 -0.19438 -0.184605 -0.230894 -0.151892 -0.143073 -0.116454 -0.131088 -0.168788 -0.202289 -0.176975 -0.221831 -0.172031 -0.118405 -0.148693 -0.216032 -0.143138 -0.18626 -0.209907 -0.135051 -0.145348 -0.123079 -0.142502 -0.135308 -0.147585 -0.173519 -0.20329 -0.231424 -0.186521 -0.196373 -0.199047 -0.116114 -0.120973 -0.136835 -0.11591 -0.118441 -0.121499 -0.13197 -0.154454 -0.181713 -0.133483 -0.220668 -0.123563 -0.124427 -0.122319 -0.118978 -0.129909 -0.11801 -0.131575 -0.11791 -0.132727 -0.150174 -0.115273 -0.127899 -0.118717 -0.192463 -0.194345 -0.19632 -0.137854 -0.147614 -0.119246 -0.15668 -0.137909 -0.168913 -0.137909 -0.17388 -0.143451 -0.137909 -0.116777 -0.11746 -0.115345 -0.116291 -0.126349 -0.139265 -0.116013 -0.120079 -0.115602 -0.126074 -0.123792 -0.12829 -0.115491 -0.117103 -0.121803
internal_weight=0 379.577 2612.64 276.755 120.38 56.3535 41.711 102.821 88.0841 39.7339 14.6426 274.671 48.3501 40.7558 2492.26 56.3607 8.50575 35.983 18.6659 17.3171 9.59353 64.0265 5.88733 14.7374 9.4951 7.30131 9.02768 36.965 20.1638 47.8549 9.41957 16.6454 9.76872 3.51839 9.17082 273.421 7.59431 6.1552 4.75484 2435.9 101.784 28.7453 2334.12 433.36 224.089 43.4913 15.0206 7.24517 5.61489 14.0081 7.77545 6.94191 16.8012 180.598 14.7723 165.825 13.7017 38.4354 5.92747 2.07237 209.271 8.74065 32.1174 6.86497 6.65659 6.4482 4.40235 2.5269 28.4707 1.44721 1.8365 3.8974 1.8365 2.55318 1.10716 1.8365 152.124 26.6342 1900.76 551.962 15.5119 1.62812 536.45 53.7012 482.749 5.69161 13.8838 8.77842 477.057 30.2809 10.0677
internal_count=25810 1205 24605 646 1021 421 350 559 521 170 71 626 351 318 23584 481 49 134 103 31 49 600 42 38 73 27 25 307 153 432 71 138 72 15 30 614 33 16 13 23103 937 236 22166 4046 2049 369 103 32 46 31 71 63 154 1680 126 1554 117 361 49 12 1997 76 301 26 24 22 35 17 266 6 14 18 14 10 7 14 1437 252 18120 5231 138 12 5093 496 4597 51 126 77 4546 287 93
is_linear=0
shrinkage=1


Tree=3
num_leaves=72
num_cat=0
split_feature=3 3 2 9 9 3 5 8 9 9 10 10 8 0 0 2 10 8 0 0 9 10 0 5 10 9 10 8 9 5 9 9 8 8 2 10 0 9 10 8 4 8 9 8 10 9 8 8 9 8 8 10 4 7 7 9 8 8 10 10 10 8 10 10 2 10 9 10 8 10 10
split_gain=5393.82 843.136 106.9 92.8902 482.878 57.9245 34.942 33.2707 52.9789 235.271 26.802 28.8793 25.8119 23.3635 19.1741 17.8619 17.6522 86.6406 27.5947 16.7326 13.1055 14.7462 19.903 13.0938 11.2935 18.0012 10.5006 10.0686 7.65483 6.73459 6.60718 38.6979 5.87495 5.08908 4.31 4.2576 4.03707 3.57743 2.21567 2.20371 3.46379 2.10697 1.69016 1.61734 6.18181 46.9454 27.0247 7.97855 6.23686 4.58443 3.6812 1.49569 3.82738 1.40123 116.802 1.22847 1.21697 0.847637 0.791203 9.21674 1.02296 0.695411 4.09514 1.19023 0.63972 0.493345 3.04436 0.422732 4.22674 0.117487 4.25846
threshold=0.81516377480969238 14.819685485979763 -1.7810086037073065 0.67874731358180773 0.73602324653950446 7.3753831980976114 204.10000000000002 32.500000000000007 -0.6513813755373995 -0.7152608798885095 0.68143971265298497 -0.93250776450824124 1.0000000180025095e-35 132.50000000000003 170.50000000000003 -5.4999999999999991 -0.99747188198832692 108.50000000000001 162.50000000000003 94.729544845435512 0.18327223642730442 -0.99935215241779918 169.30615018997429 226.00000000000003 -0.99887440526539295 -1.0000000180025095e-35 0.99452188484922155 40.500000000000007 0.061992135454488902 116.10000000000001 0.8740373472823314 0.89052730907880273 618.50000000000011 1456.5000000000002 -141.54939447350384 0.69067207740568237 245.00000000000003 0.49258178676971281 0.98789226397179331 2.0460520435890461 2.7264140062236955 20.500000000000004 -1.0000000180025095e-35 307.50000000000006 -0.89925579029229186 -0.41045361332760827 328.14294396061467 747.50000000000011 0.30171129762085214 322.50000000000006 530.50000000000011 -0.94870371004805498 42.110997507908927 1.0000000180025095e-35 0.9330741867185649 0.63352154986062625 36.500000000000007 639.50000000000011 0.84996932436345307 0.92146813844190512 0.98970349416910586 310.50000000000006 -0.62020696828980448 -0.65674480777033317 119.50000000000001 -0.87182003487185311 0.41595015277067032 0.6632189559571332 670.50000000000011 0.98586231358396625 0.98789226397179331
decision_type=2 2 2 2 2 2 2 2 2 2 2 2 2 2 2 2 2 2 2 2 2 2 2 2 2 2 2 2 2 2 2 2 2 2 2 2 2 2 2 2 2 2 2 2 2 2 2 2 2 2 2 2 2 2 2 2 2 2 2 2 2 2 2 2 2 2 2 2 2 2 2
left_child=2 3 10 5 -5 19 29 8 9 35 11 20 15 -12 -11 -7 17 18 -9 -2 21 -1 -23 -8 25 -10 27 55 -20 -6 36 -32 -19 43 42 -4 69 65 -38 40 -13 -37 -3 56 45 46 49 57 -49 -45 -48 52 -36 -21 -55 58 -18 -47 -15 -60 -61 62 63 -46 -54 66 -35 -63 -69 -26 -71
right_child=1 34 7 4 6 12 23 16 24 14 13 39 -14 26 -16 -17 33 32 28 53 -22 22 -24 -25 30 -27 -28 -29 -30 -31 31 -33 -34 37 51 41 38 -39 -40 -41 -42 -43 -44 44 61 47 50 48 -50 -51 -52 -53 64 54 -56 -57 -58 -59 59 60 -62 67 -64 -65 -66 -67 -68 68 -70 70 -72
leaf_value=-0.0057002894777450058 -0.0027702479337745152 -0.0040041968413657755 -0.013661296139074559 -0.013327001375838627 -0.0011576698419123769 -0.005351545781463663 -0.0075299401445445002 -0.0062511856781267503 -0.0095458676110221959 -0.0034574946352079012 -0.0080035738224665341 0.022827995362512829 -0.008800337701708693 0.080210699323710971 0.10051222874178362 0.07406079254442674 -0.007492547009507142 -0.013801292993483856 0.087913936328919681 0.10997147724039595 -0.0067650780931558718 0.079411525904390198 -0.0053103213572086366 0.050738238852419508 -0.014273345755780651 0.05115778079551727 -0.004366666288625456 -0.0038536467878644942 -0.0019809740619358557 0.11209771088558984 0.059533776179177628 -0.012758588051002683 0.018589925343391236 0.020765402224275777 -0.0097101153739044994 0.02268831131672127 -0.0054404647378148586 -0.0087916970309538985 0.021499925310553648 -0.012470475204356053 -0.0076788324802554543 -0.0048875289586156638 0.022609140395124391 -0.0015817183572940112 -0.0027360638844248172 -0.014132105861680108 -0.0092576327387210063 0.030993362518813617 -0.0076038790867389138 0.075956987239440013 0.019615569664126146 -0.013738930686178269 0.022683161561315789 -0.010159117499983597 0.095915132223279687 -0.00057644273038473417 -0.013994089181966311 -0.0049187516344821863 -0.0059925105358515701 0.01045639312370918 0.052158888290542542 -0.013439958892473458 -0.011077671991314026 0.023361149391166437 -0.0015562257831718261 0.023136947049046445 -0.0074876717563196376 -0.011696518280052475 0.013136161474849098 0.014587454978670023 -0.012460813068136961
leaf_weight=1.2743688225746148 0.46787702292203803 0.74643361568450928 29.330701105296615 19.206335805356503 0.17025305330753226 1.1306068599224088 2.1222788393497463 1.4930778443813313 3.7805721014738083 0.62040060758590421 2.4057300612330428 0.38817676901817622 2.9709704518318176 4.0166746750473905 8.6963784247636795 3.0724665224552146 19.070157341659069 34.759835600852966 3.5672602057456975 145.28986051678658 1.7226506024599073 2.7903946042060852 1.1339814737439153 1.208924353122711 85.064986206591129 1.1890864670276631 0.85311678797006685 0.71439469605684358 0.31346332281827916 37.584036841988564 1.6389346122741688 13.923975035548208 0.6934124231338491 0.52821119129657823 3.8748936355113974 0.39668795466422935 1.1836589276790608 3.0252419710159302 0.47554831951856602 11.665835961699484 2.2089535668492317 1.0063635781407354 0.40152969956397899 0.24178340286016409 0.46158156543970108 61.422853380441666 3.4518278315663338 1.279079690575599 2.1724285185337067 2.3104598522186279 0.61282347887754429 28.235013552010059 0.39700251817703236 4.4520794153213528 25.997088797390461 0.08170451223850328 954.55669417977333 7.2386838793754569 1.3924433067440984 1.5661543086171152 2.0404651463031769 546.55214983969927 6.3064116239547721 0.35605996847152699 0.23786861449480057 0.36949411034583945 2.102609395980835 132.87509126216173 1.2236495837569226 1.0636814907193173 11.696069709956644
leaf_count=16 6 1 373 34 2 5 27 19 49 8 30 1 4 13 22 7 240 427 9 394 22 7 14 3 952 3 11 9 4 96 4 181 5 3 7 1 15 39 2 150 28 13 1 3 6 790 44 8 28 6 4 96 1 6 102 1 12304 90 18 16 9 7029 82 1 3 1 27 1704 12 10 152
internal_value=0 0.0823831 -0.0114533 0.0952883 0.0687719 0.10317 0.105988 -0.0120767 -0.00329258 0.0161168 0.02269 0.00740582 0.0343547 0.0431916 0.0942014 0.0578612 -0.012859 0.000134449 0.0627927 0.105555 0.03586 0.0479396 0.0614023 0.0247176 -0.00992767 0.0154909 0.0541801 0.0591481 0.0824485 0.111554 -0.0112716 0.000767076 -0.0122089 -0.0131626 -0.0105385 -0.0118634 -0.0131329 0.00403994 0.00981183 -0.00911408 0.00482854 0.011661 0.0137547 -0.0132267 -0.0123599 -0.00677807 0.0376754 -0.0117636 0.0128227 0.0711438 0.000128779 -0.0121329 -0.000945799 0.105871 0.0807354 0.0638983 -0.0138824 -0.0133275 0.0644812 0.0325338 0.0442397 -0.0129774 -0.00479069 0.0171439 0.0193136 0.0153197 0.00470334 -0.0130488 -0.0112802 -0.0137108 -0.00853489
internal_weight=0 277.566 1981.31 243.673 60.2918 183.381 41.0855 1947.05 160.067 40.0505 34.255 21.1844 7.17404 13.0707 9.31678 4.20307 1786.98 40.827 5.3738 176.207 6.9214 5.19874 3.92438 3.3312 120.017 4.96966 10.665 9.81184 3.88072 37.7543 115.047 15.5629 35.4532 1746.16 33.8927 30.7338 99.4839 6.02556 1.65921 14.263 2.59713 1.40305 1.14796 1740.13 766.505 78.7299 6.61689 72.113 3.45151 2.55224 4.06465 32.7448 4.50976 175.739 30.4492 9.09744 973.627 68.6615 9.01574 4.99906 3.60662 687.775 7.12405 0.817642 0.634871 3.00031 2.63082 680.651 134.099 97.8247 12.7598
internal_count=25810 795 25015 686 162 524 128 24670 1785 417 345 238 16 107 30 12 22885 464 32 508 59 37 21 30 1368 52 77 66 13 98 1316 185 432 22421 109 387 1131 70 17 179 29 14 2 22351 9807 973 57 916 36 9 48 107 11 502 108 57 12544 880 56 43 25 8834 89 7 4 31 30 8745 1716 1114 162
is_linear=0
shrinkage=0.02


Tree=4
num_leaves=39
num_cat=0
split_feature=4 3 5 5 10 9 9 9 5 0 6 9 6 10 0 10 8 10 9 8 0 0 10 8 0 9 8 9 5 0 0 10 8 8 10 9 10 9
split_gain=2542.3 517.806 480.695 722.91 483.897 371.017 215.635 146.19 137.223 81.6613 56.6322 51.4994 49.6839 79.7166 95.0217 40.5937 39.8277 16.9909 23.9481 33.9737 42.3125 51.2003 15.6188 13.3613 12.7633 9.64674 8.49154 7.60995 7.58613 19.0208 7.46846 32.584 31.2692 19.3828 9.04511 24.9461 3.3265 0.110672
threshold=10.722994732022416 1.0000000180025095e-35 145.07241245029107 132.90000000000003 0.30358271003856524 0.72769793782089287 0.74384998968867266 -0.048268679194724266 113.30000000000001 231.50000000000003 30.285767515878643 -0.16042604268461472 2.8740351552610828 0.97025172695741879 215.50000000000003 0.99799922533558816 50.164698870244273 -0.98987453059520025 1.0000000180025095e-35 193.50000000000003 154.50000000000003 127.34411337936854 -0.99971204459117546 373.50000000000006 100.50000000000001 -0.23287962002963955 2.0460520435890461 -0.75728006006663651 140.8721203706227 140.14067216801672 133.7174500456139 0.9445675347699336 462.50000000000006 211.32214164652203 -0.82826413177898128 -0.22073289800989154 0.64398454865053323 -0.78190596590918282
decision_type=2 2 2 2 2 2 2 2 2 2 2 2 2 2 2 2 2 2 2 2 2 2 2 2 2 2 2 2 2 2 2 2 2 2 2 2 2 2
left_child=1 12 3 16 6 8 7 -5 -2 15 -4 -12 17 -14 25 -10 -3 18 19 -1 21 24 -9 -18 -21 -15 27 36 29 30 34 32 -32 -33 35 -28 -19 -36
right_child=5 2 10 4 -6 -7 -8 22 9 -11 11 -13 13 14 -16 -17 23 26 -20 20 -22 -23 -24 -25 -26 -27 28 -29 -30 -31 31 33 -34 -35 37 -37 -38 -39
leaf_value=-0.011000826548147179 -0.0049496123937132 -0.012505451526362317 -0.01319377355902092 -0.0045833288004068027 -0.00999821533468747 -0.0087842186956476088 -0.0063320553632788858 -0.00065641701851220909 0.22288376051394779 -0.0032622439860801075 0.11097240360566624 -0.0075474332170091772 -0.011298056252223406 -0.00099635015448527051 -0.0079166533294066591 -0.0017709086968628312 0.08155932895529075 -0.0024907943900725101 -0.012523995446146005 0.048515982186548914 -0.0090034255725499265 0.12430386331591026 0.23756554853434719 -0.0038372489844845253 -0.008709313881147325 0.14739558351065038 0.018534953055282882 -0.0071598356449986376 -0.013721200578786213 0.048848877181214612 -0.012998047354314826 -0.0050778618629685338 0.042747226453587632 0.085097146285966888 -0.01007701372137461 -0.012874147799810196 0.047645672569088478 -0.013592063611314542
leaf_weight=7.9144549742341068 1.0977545008063376 19.027709927409891 42.237962879240513 0.99214228242636515 5.2334178034216157 3.495407421141862 1.691066026687621 0.099724676460033801 23.038983887061484 0.61239276081323524 1.0035983324050906 2.4069775268435469 9.1029274147003871 0.15577844344079483 2.6928329803049564 0.29411064088344474 0.71602845191955455 0.44073205068707499 19.885051218792796 0.300273478031157 3.7573906164616346 1.5519454814493654 15.135683901607983 0.76870875060558319 3.4319294579327106 1.7604730576276768 13.17936349660158 2.1584298610687247 466.52245775610209 0.28815525770187278 33.161537289619446 1.1668673828244198 2.5825898125767699 0.62000230699777592 36.711804203689098 28.426429325714707 0.33284902200102806 144.97703396901488
leaf_count=258 26 164 367 8 42 64 11 3 99 16 3 22 297 5 67 9 2 14 583 1 119 13 42 5 111 6 392 54 15015 1 1046 38 67 4 1186 921 2 4727
internal_value=0 -0.00539792 0.0396919 0.0855806 0.157445 0.18025 0.202443 0.222507 0.205333 0.214611 -0.00595213 0.0554572 -0.0106417 0.0247923 0.0779197 0.220136 -0.00231284 -0.0113376 0.00182334 0.0181952 0.0411153 0.0694401 0.236111 0.0605191 0.0112159 0.140984 -0.0120044 0.015267 -0.0121559 -0.00927613 -0.00971157 -0.00137271 -0.00691865 0.0546292 -0.0110885 -0.00253098 0.0378827 -0.0129993
internal_weight=0 870.434 89.313 43.6645 23.152 28.5386 17.9186 16.2276 25.0432 23.9455 45.6485 3.41058 781.121 13.712 4.60908 23.3331 20.5124 767.409 36.841 16.956 9.04154 5.28415 15.2354 1.48474 3.7322 1.91625 730.568 2.93201 727.636 261.114 260.826 37.531 35.7441 1.78687 223.295 41.6058 0.773581 181.689
internal_count=25810 25596 669 277 106 214 64 53 150 124 392 25 24927 375 78 108 171 24552 1085 502 244 125 45 7 112 11 23467 70 23397 8382 8381 1155 1113 42 7226 1313 16 5913
is_linear=0
shrinkage=0.02


Tree=5
num_leaves=57
num_cat=0
split_feature=3 4 2 5 10 10 6 10 10 10 0 0 0 0 6 10 6 4 0 0 9 10 0 9 0 9 9 9 9 9 9 10 0 0 0 9 0 0 9 10 9 10 6 9 9 10 10 0 9 10 9 0 0 0 9 9
split_gain=7276.13 270.909 77.6408 55.8382 36.1686 36.1404 32.5815 22.1576 23.6527 20.6203 19.1011 26.7816 48.1992 19.0443 17.8956 49.3917 49.0621 15.2657 14.55 11.5662 11.3009 13.1345 18.5438 7.96684 7.76635 7.67807 7.60483 6.98659 5.99079 16.9769 17.8579 78.4694 83.5773 11.3196 7.71059 5.70478 5.66902 4.6875 4.64378 3.23063 2.17016 2.61224 1.14191 2.27373 1.69949 0.887468 4.82845 2.37593 1.95318 1.90144 13.6206 0.50274 23.3919 14.3017 0.343305 0.340786
threshold=1.0000000180025095e-35 41.340316107241883 -1.175358955817313 94.300000000000011 0.97340425390991892 -0.99747188198832692 132.85000000000002 0.68143971265298497 -0.93250776450824124 0.79929151311686419 108.50000000000001 180.33027080092299 162.50000000000003 221.50000000000003 2.8740351552610828 0.97025172695741879 89.15000000000002 60.033502005581951 109.50000000000001 141.50000000000003 0.18327223642730442 -0.99935215241779918 169.30615018997429 -0.012144284178111536 245.00000000000003 0.99752585497121471 -0.23287962002963955 0.061992135454488902 1.0000000180025095e-35 -0.79006585821195152 -0.66996784386962094 0.69942949195331949 170.50000000000003 140.14067216801672 112.50000000000001 -0.012144284178111536 144.36129369806477 125.15678171353464 0.074289794120492317 -0.012326075691540119 0.38194425539183036 0.92146813844190512 -1.9000000000000055 0.74384998968867266 0.79659586429102081 -0.63862792575111826 -0.64770444611552558 140.14067216801672 0.76716514978672445 -0.70767219783180135 0.70455680314555236 173.50000000000003 176.38962080983507 174.50000000000003 -0.16042604268461472 -0.12403445013857377
decision_type=2 2 2 2 2 2 2 2 2 2 2 2 2 2 2 2 2 2 2 2 2 2 2 2 2 2 2 2 2 2 2 2 2 2 2 2 2 2 2 2 2 2 2 2 2 2 2 2 2 2 2 2 2 2 2 2
left_child=1 2 7 -2 -3 10 17 8 20 19 -4 12 18 40 28 -16 26 24 -12 -9 21 -1 -23 36 25 -5 -17 -14 29 -7 31 39 -33 34 -32 -35 -20 -25 -15 -31 -11 -42 43 -10 -45 46 49 -48 -49 -30 -51 -47 53 -53 -28 -56
right_child=3 4 5 6 -6 14 -8 9 42 13 11 -13 27 38 15 16 -18 -19 23 -21 -22 22 -24 37 -26 -27 54 -29 45 30 33 32 -34 35 -36 -37 -38 -39 -40 -41 41 -43 -44 44 -46 51 47 48 -50 50 -52 52 -54 -55 55 -57
leaf_value=0.0069206305528857993 0.0081314375109204258 0.0073031543259106388 0.013652317473469303 -0.084838824596756304 -0.079061483323529066 0.01459090853634183 0.0060649185229505543 0.0046119721044528914 0.0092809252015406789 0.011480333112089411 -0.044265283727065743 0.013148339609875983 -0.070654019576009461 -0.050163031089503748 0.01413322257118345 0.0031009145454862831 0.011235984613842122 0.0036118407545335353 -3.9313615851239269e-05 -0.063252343810098074 0.0080639641189913531 -0.065173420598985454 0.0065048624200426354 -0.015909117048459185 0.0020846829707938707 0.0020577585931571742 -0.069963039009540678 0.0026029534438165108 0.01344300810498974 0.013931348823922616 0.011727609577505814 0.01328823154889857 -0.04742188505897503 0.013957406687592364 0.0038406738982285568 -0.0056938119303727866 -0.025560753486040037 0.013013858265562148 0.0030980049068405628 0.0064812406734928839 0.006640014415910429 -0.020835827808032538 0.013238405686531887 -0.020947932235244101 0.0044582653016073323 0.014878873060469049 0.0079965800431590402 -0.018431160365281914 0.0051077590167261716 -0.034663376979652182 0.010743617409094065 0.0032153394627140153 0.014079868366958695 -0.043263922007555432 -0.015404892055844572 0.001408243455420158
leaf_weight=1.6742756143212316 2.3034466058015814 1.8596262708306284 18.48941495269537 362.27852798253298 13.012629322707653 505.66992688179016 1.3360976949334133 0.86483962088823574 3.1412103027105358 6.2268119007348997 1.5462189316749633 13.164266891777514 4.6597867012023917 2.142851591110229 28.245613045990467 0.51480963826179493 5.752067007124424 0.62462068349122901 7.6148906350135857 5.2843265309929848 2.2736392095685005 3.6173454523086566 1.4905038625001905 0.91303649544715426 0.31745857000350852 0.31348716467618842 5.1413473635911942 0.41446894407272328 298.59042543917894 73.457535102963448 92.547268494963646 14.418309941887854 19.5993837043643 332.07298327237368 110.53841842710972 5.0101565122604361 4.4232804551720619 12.279910847544668 0.51430266350507725 42.174388952553272 1.5571575090289118 0.51320135593414296 13.883497968316076 0.50596719980239846 0.8321819007396698 607.02766665071249 2.2435556948184958 2.4903822541236877 1.0197888016700747 0.93125724792480369 31.240729056298733 5.5931567177176458 314.83630883693695 2.6334444954991341 0.95716199278831449 0.20512836426496339
leaf_count=16 22 18 181 752 15 4944 13 8 30 60 3 128 9 4 276 5 56 6 66 14 22 7 14 5 3 3 6 4 2891 715 885 141 97 3228 998 41 26 120 5 389 15 1 135 1 8 5942 22 17 10 1 297 51 3068 9 5 2
internal_value=0 0.0113096 0.0118174 -0.0835126 -0.0686768 0.0122742 -0.0841324 -0.0139128 -0.00222262 -0.0304586 -0.00255226 -0.00950561 -0.0190921 -0.0103693 0.0126522 -0.000460375 -0.0306907 -0.0844952 -0.00632593 -0.0549183 -0.0256432 -0.0362063 -0.0483123 -0.000920601 -0.0846658 -0.0847528 -0.0605868 -0.0656261 0.0128697 0.0117769 0.00967787 0.00350424 -0.022381 0.011369 0.00751411 0.0136335 -0.0117225 0.00918142 -0.0429508 0.0113705 0.00638054 -0.00706204 0.0107116 0.00121107 -0.0119432 0.013881 0.0125931 -0.00430821 -0.0122208 0.0129112 0.00747742 0.014319 0.013182 -0.0172146 -0.0652822 -0.0134236
internal_weight=0 2625.81 2610.94 367.174 14.8723 2566.42 364.87 44.5221 27.4186 17.1035 63.5053 45.0159 31.8516 10.9543 2502.91 40.8161 12.5705 363.534 26.7773 6.14917 9.05576 6.78212 5.10785 25.2311 362.909 362.592 6.81845 5.07426 2462.1 1195.49 689.818 149.65 34.0177 540.169 203.086 337.083 12.0382 13.1929 2.65715 115.632 8.29717 2.07036 18.3629 4.47936 1.33815 1266.61 336.516 5.75373 3.51017 330.762 32.172 930.091 323.063 8.2266 6.30364 1.16229
internal_count=25810 25011 24978 799 33 24638 777 340 233 107 542 361 233 85 24096 350 74 764 220 22 59 37 21 217 758 755 18 13 23746 11438 6494 1342 238 5152 1883 3269 92 125 9 1104 76 16 174 39 9 12308 3238 49 27 3189 298 9070 3128 60 13 7
is_linear=0
shrinkage=0.02


Tree=6
num_leaves=70
num_cat=0
split_feature=3 3 2 9 9 3 8 9 9 3 10 10 7 5 10 8 5 2 5 5 9 10 5 10 9 10 8 9 9 9 8 5 8 10 2 5 9 10 3 5 8 2 10 8 9 8 10 9 8 8 9 8 8 10 5 8 9 8 5 8 10 10 10 10 8 10 9 10 10
split_gain=4607.94 674.206 104.025 66.1278 392.653 41.014 33.0261 51.5911 207.003 24.9579 24.1558 27.0387 23.5526 21.0568 17.5602 79.8429 23.6435 16.2167 15.6714 13.0319 11.9435 13.1867 17.3788 11.1383 17.0804 9.375 9.17051 6.66738 36.6713 6.47064 5.80029 5.15086 5.13553 4.24444 4.20514 4.02086 3.57068 3.16309 2.81608 5.7557 2.19675 2.49752 2.17488 2.08259 1.70733 1.66812 6.27881 46.1152 25.0804 7.97126 6.10158 4.27928 3.63977 1.41228 3.5986 1.2367 1.15557 0.865675 0.828928 0.718046 4.06924 1.17323 0.575537 0.452399 6.05918 0.445881 3.00488 0.142706 4.22761
threshold=0.81516377480969238 14.819685485979763 -1.7810086037073065 0.67874731358180773 0.73602324653950446 7.3753831980976114 32.500000000000007 -0.6513813755373995 -0.7152608798885095 0.89442719099988854 0.68143971265298497 -0.93250776450824124 0.23550071443221329 132.90000000000003 -0.99747188198832692 108.50000000000001 162.50000000000003 -5.4999999999999991 170.70000000000002 97.100000000000009 0.18327223642730442 -0.99935215241779918 169.90000000000003 -0.99887440526539295 -1.0000000180025095e-35 0.99452188484922155 40.500000000000007 0.8740373472823314 0.89052730907880273 0.061992135454488902 618.50000000000011 116.10000000000001 1456.5000000000002 0.69067207740568237 -141.54939447350384 245.80000000000004 0.49258178676971281 -0.67457085115751614 1.0954451150103346 204.70000000000002 2.0460520435890461 -4.4999999999999991 0.98789226397179331 20.500000000000004 -1.0000000180025095e-35 307.50000000000006 -0.89925579029229186 -0.41045361332760827 328.14294396061467 747.50000000000011 0.30171129762085214 322.50000000000006 530.50000000000011 -0.94870371004805498 150.10000000000002 36.500000000000007 0.63352154986062625 639.50000000000011 156.68599681352524 310.50000000000006 -0.62020696828980448 -0.65674480777033317 -0.39634684332439746 0.74248754952338314 670.50000000000011 -0.87182003487185311 0.41595015277067032 0.98586231358396625 0.98789226397179331
decision_type=2 2 2 2 2 2 2 2 2 2 2 2 2 2 2 2 2 2 2 2 2 2 2 2 2 2 2 2 2 2 2 2 2 2 2 2 2 2 2 2 2 2 2 2 2 2 2 2 2 2 2 2 2 2 2 2 2 2 2 2 2 2 2 2 2 2 2 2 2
left_child=2 3 10 5 -5 19 7 8 33 -6 11 20 17 -12 15 16 -8 -7 -10 -2 21 -1 -23 24 -9 26 56 35 -29 -18 -17 -11 45 -4 44 67 65 -33 39 -39 41 -13 -37 -35 -3 55 47 48 51 57 -51 -47 -50 54 -36 -16 -15 -49 -56 60 61 -48 -43 -61 -65 66 -34 -25 -69
right_child=1 34 6 4 9 12 14 23 18 31 13 40 -14 25 32 30 29 -19 -20 -21 -22 22 -24 27 -26 -27 -28 28 -30 -31 -32 37 36 43 53 42 -38 38 -40 -41 -42 62 -44 -45 -46 46 59 49 52 50 -52 -53 -54 -55 58 -57 -58 -59 -60 63 -62 -63 -64 64 -66 -67 -68 68 -70
leaf_value=-0.0056600469423080599 -0.0028770712517561959 -0.0041760707610015955 -0.013611449388226655 -0.013440884259654022 -0.0045552113783612572 -0.0055728875446648734 -0.0062006338567771949 -0.0094872079011734545 -0.003418394138450135 -0.0012384101690611664 -0.0079406201433237927 -0.0070674671130156698 -0.0090191076743551379 0.060298619750840762 -0.0073863241993359727 -0.013761309106521685 0.079764990630794036 0.067531829591574374 0.090021886004326354 0.089683100591036596 -0.0067145285441566763 0.073150011138232426 -0.0052741673667530591 -0.014255161937745658 0.049239535865444072 -0.004333662464144592 -0.0039050030346543031 0.056764371436408639 -0.012694252102683967 -0.0019745677028645339 0.018335946145693421 -0.00079927706644409376 0.020712951107120237 0.022599130692342748 -0.0098418655345712605 -0.0054061298273272405 -0.0087138808785901644 0.042084711576876932 0.095332466418995246 -0.0047335363587542346 -0.012407718716771123 0.0214498640676954 0.021282397142003941 -0.0048544008522001282 0.022048656651198092 -0.0015754809143409692 -0.002704248527105318 -0.014090659928351519 -0.0091808842302061773 0.030715234739719044 -0.0075302177893775326 0.073058087834834903 0.019569645899159313 -0.013839098788514553 0.022211528712006948 -0.013948450851796808 -0.00060788901326826422 -0.0047916794512875768 -0.0020636062052868439 -0.013330502569457517 -0.011000793769899396 0.023309710397254685 -0.0015096880041586707 -0.011484772461694878 0.021783453561944124 0.023083287672168881 -0.007414446534130743 0.014566637294416466 -0.012397442653553106
leaf_weight=1.2618987113237379 0.48751563578843971 0.78451168537139893 28.696311436593536 19.991153955459595 0.89882580190896888 1.1921402812004087 1.4753927439451207 3.7292000204324722 0.61233195662498197 0.18160714209079643 2.3723447546362868 1.8729506805539133 3.115437150001525 9.6121330112218786 18.811338499188423 34.123207494616508 4.036801815032959 3.4623521864414215 9.7427881062030792 202.59633322060108 1.7027232497930525 3.1236556172370902 1.1237050071358679 84.074347801506519 1.2818203568458546 0.84512643516063768 0.72538176178932268 1.7757282257080067 13.620574742555617 0.31241969019174565 0.71314141154289146 0.1101076602935781 0.53179772198200304 0.4021427035331715 3.967968448996543 1.1733779609203328 2.9723665714263916 1.6845971792936318 43.467717431485653 0.95498777925968159 11.434494957327841 0.47875731438398361 0.4897799640893935 0.99752146750688553 0.43616759777068981 0.24083279073238317 0.4557298943400383 60.097356840968132 3.3918092399835587 1.298400163650512 2.1366149485111237 2.4499003887176514 0.61616953462362278 29.355808980762959 0.42603737115859974 933.97646953165531 0.085836254060269179 7.1349050924181929 0.32672473043203354 560.711824208498 6.1805183291435233 0.35913297533988942 0.2307992354035403 105.33473555743694 0.45715939253568549 0.37272477149963279 2.0681245699524879 1.0657580941915501 11.459965758025644
leaf_count=16 6 1 373 34 11 5 19 49 8 2 30 24 4 56 240 427 9 7 22 502 22 7 14 952 3 11 9 4 181 4 5 1 3 1 6 15 39 5 97 12 150 2 2 13 1 3 6 790 44 8 28 6 4 96 1 12304 1 90 4 7365 82 1 3 1378 2 1 27 10 152
internal_value=0 0.071036 -0.0113669 0.0814195 0.0600738 0.087603 -0.0119991 -0.00322746 0.015785 0.0904306 0.0220226 0.00735003 0.0312138 0.0409976 -0.0127919 0.000188818 0.0582022 0.0527603 0.0848375 0.089435 0.0341942 0.0452585 0.0573555 -0.00986244 0.0152961 0.0509444 0.0554025 -0.0112169 0.000921766 0.0751209 -0.0121444 0.0923828 -0.0131005 -0.0117799 -0.0107649 -0.0130993 0.00424414 0.0927868 0.0930343 0.0304074 -0.00900682 0.00489454 0.00978194 0.011688 0.0130674 -0.0131659 -0.0122829 -0.00661916 0.0371626 -0.0116779 0.0129092 0.0685545 0.00028228 -0.0122957 -0.00143606 -0.0138346 0.0597478 -0.0132708 0.017831 -0.012912 -0.00462931 0.0171766 0.0183798 -0.0129849 -0.0109395 0.0154944 0.00484315 -0.0136837 -0.00841344
internal_weight=0 313.44 1944.25 278.143 67.289 210.854 1909.38 159.122 40.4511 47.2978 34.8698 21.229 7.76993 13.6408 1750.26 40.661 5.82461 4.65449 10.3551 203.084 7.21198 5.50926 4.24736 118.671 5.01102 11.2685 10.4234 113.66 15.3963 4.34922 34.8363 46.399 1709.6 30.096 35.2972 98.2632 5.94501 46.2174 46.1073 2.63958 14.017 2.58251 1.66316 1.39966 1.22068 1703.65 750.865 77.366 6.69871 70.6673 3.43502 2.69073 4.00798 34.0765 4.72073 952.788 9.69797 67.2323 0.752762 673.499 6.99538 0.814863 0.709557 666.504 105.792 2.97265 2.59992 96.6001 12.5257
internal_count=25810 795 25015 686 162 524 24670 1785 417 128 345 238 16 107 22885 464 32 12 30 508 59 37 21 1368 52 77 66 1316 185 13 432 117 22421 387 109 1131 70 115 114 17 179 29 17 14 2 22351 9807 973 57 916 36 9 48 107 11 12544 57 880 5 8834 89 7 5 8745 1380 31 30 1114 162
is_linear=0
shrinkage=0.02


Tree=7
num_leaves=47
num_cat=0
split_feature=4 3 2 5 5 9 9 5 6 9 9 5 3 6 7 8 8 1 4 6 1 8 5 9 9 8 5 5 8 5 8 4 4 5 1 3 5 5 8 5 8 5 9 1 5 8
split_gain=1998.44 412.07 347.781 330.246 315.405 296.091 82.5687 81.5412 49.0404 64.0418 83.3753 46.8217 45.0725 36.5811 38.7224 42.5528 28.551 21.3264 17.4025 13.462 13.4166 12.9685 12.8446 14.4619 48.8313 43.784 32.0834 39.8476 47.8318 16.165 12.2612 11.9945 9.87628 5.7067 5.46185 9.42893 4.55809 17.5479 36.4974 4.27992 33.0566 39.1707 34.4932 3.31255 2.26624 0.529554
threshold=8.174897671012781 1.0000000180025095e-35 -3.8369594673044118 140.10000000000002 132.90000000000003 0.72769793782089287 0.25498871692160646 113.30000000000001 2.8740351552610828 -0.19769298378351605 -0.23287962002963955 207.70000000000002 4.8682645778552525 2.0999999999999948 0.41042282196521807 8.5000000000000018 50.164698870244273 -7.4999999999999991 5.7503623074260792 71.929239155636409 11.795402939651312 373.50000000000006 147.90000000000003 1.0000000180025095e-35 -0.25702737481839971 193.50000000000003 115.16964977017223 145.90000000000003 454.50000000000006 99.300000000000026 4.1917485279356992 10.722994732022416 9.689914060554214 145.90000000000003 -5.9320973476324248 4.3817804600413632 117.98186715287396 109.80000000000001 226.50000000000003 132.90000000000003 427.50000000000006 140.8721203706227 0.72769793782089287 -6.5910451128608916 104.17002513684746 2.0460520435890461
decision_type=2 2 2 2 2 2 2 2 2 2 2 2 2 2 2 2 2 2 2 2 2 2 2 2 2 2 2 2 2 2 2 2 2 2 2 2 2 2 2 2 2 2 2 2 2 2
left_child=1 8 12 4 16 7 -6 -2 22 10 -10 31 34 -5 -15 -16 -4 18 -14 -12 -19 -18 23 24 30 -26 29 28 -28 -27 33 32 -9 -1 35 -3 37 44 -39 -25 -41 42 -42 -37 -32 -35
right_child=5 2 3 13 6 -7 -8 11 9 -11 19 -13 17 14 15 -17 21 20 -20 -21 -22 -23 -24 39 25 26 27 -29 -30 -31 36 -33 -34 45 -36 43 -38 38 -40 40 41 -43 -44 -45 -46 -47
leaf_value=-0.0044235071641005484 -0.0050082609359658947 -0.0091665780588436521 -0.010523808597748386 -0.011854332747836165 -0.0045127256280171673 -0.009706830096837496 0.1764650478225516 0.069313046049764307 -0.0083003235445284346 -0.011116633415309989 0.13169582148245221 -0.0032608885325268828 0.087609320161626578 -0.0087200791146683394 0.10715653548184818 -0.0062614247532962611 0.07778399180411999 -0.0097144229027381242 -0.0041115273056697077 -0.00165708139985591 0.045615640387783596 -0.0040005391231818562 -0.013702575269890636 -0.013585293164501733 -0.011781623497551659 0.048213974333965307 0.089002955457921598 -0.0082511802405336732 -0.0073366121182200676 -0.010839333561268342 -0.012768217829377034 0.16962371046769281 -0.003478848449655055 0.047287700136884485 -0.013158801166732488 -0.0027045573012602592 -0.013414255861903746 -0.0090898097591136009 0.083093229526595994 -0.013138535418846669 0.10965821432777804 -0.0093473141296162802 -0.0054543077885918761 0.044960258267403984 -0.001090399766250803 -0.00041046053268070691
leaf_weight=0.9456965997815121 1.1160935275256623 3.9160038754343978 6.339111220091584 11.935768727213146 0.96698625385761339 4.7061501238495103 15.140836536884308 2.5028054565191264 3.0345078464597464 8.3528987728059274 2.1639826912432905 0.61185605823993583 1.6923931874334814 3.4016846306622028 2.0504372958093877 1.6544366665184496 0.82685494422912575 4.703348232433199 0.84449096024036396 0.2734643481671809 0.41109901666641224 0.81227630376815796 407.18049846030772 147.97285925969481 11.83198009431362 0.31137099862098949 7.2748942207545024 2.9908396918326607 2.2806586921215057 7.3856631759554148 25.45668875053525 30.264086570590734 0.67313824594020832 0.34639030322432518 38.348819153383374 0.48538763821125031 75.077935053035617 3.876258833333849 0.67389485239982594 41.671584323048592 1.0360627323389047 4.2259380090981722 1.3105499781668184 0.43751221895217884 9.2958967108279449 0.06139659509062767
leaf_count=31 26 25 45 107 6 74 28 11 101 256 7 16 6 25 6 20 2 41 6 9 1 5 13355 4907 392 1 160 100 76 244 843 108 6 2 321 3 2456 123 4 1371 7 137 43 1 294 2
internal_value=0 -0.00569049 0.0334014 0.0738136 0.120073 0.135796 0.166302 0.154742 -0.0105666 0.0245016 0.0672948 0.159965 -0.00237788 0.00944983 0.0399762 0.0720698 0.0121138 0.0369542 0.068724 0.122731 0.00630614 0.0573306 -0.0112754 -0.00834001 -0.00354674 0.0175977 0.0342849 0.051759 0.0687191 0.00100093 -0.00960627 0.162967 0.0585021 0.0289487 -0.0106733 0.00711222 -0.0105521 -0.00469997 0.0257656 -0.0118785 -0.00631126 0.0299417 0.0724409 0.0351943 -0.00987386 0.0457305
internal_weight=0 858.999 93.9674 43.1284 24.0861 39.8741 16.1078 35.168 765.032 13.8249 5.47195 34.0519 50.8391 19.0423 7.10656 3.70487 7.97824 7.65133 2.53688 2.43745 5.11445 1.63913 751.207 344.027 147.81 32.0754 20.2434 12.5464 9.55555 7.69703 115.734 33.44 3.17594 1.35348 43.1877 4.8389 114.381 39.3027 4.55015 196.217 48.2441 6.57255 2.34661 0.9229 34.7526 0.407787
internal_count=25810 25569 648 244 86 241 34 167 24921 373 117 141 404 158 51 26 52 54 12 16 42 7 24548 11193 4728 973 581 336 236 245 3755 125 17 35 350 29 3720 1264 127 6465 1558 187 50 4 1137 4
is_linear=0
shrinkage=0.02


Tree=8
num_leaves=67
num_cat=0
split_feature=3 8 2 10 5 0 10 8 8 8 10 9 0 10 10 10 9 0 0 9 0 8 0 0 0 0 10 8 9 8 9 2 10 10 9 10 9 2 8 10 9 8 2 9 8 9 2 0 8 0 0 9 9 0 9 8 10 10 8 8 10 10 2 0 9 9
split_gain=6264.63 251.185 85.0854 47.8192 43.469 32.3117 27.5431 26.0962 41.9196 22.5707 50.9793 153.491 20.9915 19.9105 46.7072 31.3155 31.0543 29.9712 16.4143 14.2105 13.907 12.9879 18.8636 12.4307 11.8353 7.55267 7.26331 10.489 14.8881 32.5471 33.9543 6.01414 7.73326 10.231 5.94079 5.89762 22.9231 5.21609 5.12892 4.97034 32.3229 7.16096 4.81519 4.32642 7.61277 3.95548 3.61871 3.34218 12.2277 3.02648 2.39539 2.30871 1.88279 1.28597 0.942795 0.872298 1.90869 12.1561 0.776735 3.76687 1.67685 1.67232 0.663088 0.50195 0.0733429 3.99337
threshold=1.0000000180025095e-35 10.500000000000002 41.206748825834282 0.97340425390991892 94.300000000000011 240.50000000000003 -0.99747188198832692 108.50000000000001 98.500000000000014 32.500000000000007 0.69942949195331949 -0.63200112405248754 231.50000000000003 0.47239053125898317 0.79929151311686419 -0.99887440526539295 0.024759328369708584 141.50000000000003 198.50000000000003 -0.098704649636753281 170.50000000000003 364.50000000000006 218.50000000000003 162.50000000000003 245.00000000000003 231.50000000000003 -0.81472739448971809 226.50000000000003 -0.39881575414309317 328.14294396061467 -0.4990550142209324 -3.8369594673044118 -0.92826961426023114 -0.94480603647367023 0.99752585497121471 0.97025172695741879 -0.20922746078932911 -11.929487106814177 16.198242802864502 -0.84133394310126874 0.53499761953343061 747.50000000000011 -11.929487106814177 -0.048268679194724266 301.50000000000006 -0.23287962002963955 -4.4999999999999991 100.50000000000001 193.50000000000003 197.23343409872351 197.23343409872351 -0.16042604268461472 0.012071567424830751 125.15678171353464 0.91588168018875427 36.500000000000007 0.72562461584183513 0.76751489368499237 436.50000000000006 442.50000000000006 -0.69195944339767224 -0.62948991636111618 -13.499999999999998 184.9449161180423 -0.73229533133811076 -0.75728006006663651
decision_type=2 2 2 2 2 2 2 2 2 2 2 2 2 2 2 2 2 2 2 2 2 2 2 2 2 2 2 2 2 2 2 2 2 2 2 2 2 2 2 2 2 2 2 2 2 2 2 2 2 2 2 2 2 2 2 2 2 2 2 2 2 2 2 2 2 2
left_child=1 2 13 -4 -2 6 7 8 -3 10 -8 20 -5 15 17 16 -1 -15 42 25 -12 43 52 -10 34 -20 27 47 29 30 -29 32 33 -17 -6 -13 45 -19 -7 41 -41 -30 62 44 -9 -37 -34 48 -11 -31 -46 -38 -23 -54 63 56 -28 -58 -57 61 -61 -60 -16 -48 65 -39
right_child=4 5 3 12 24 38 9 21 23 26 11 35 -14 14 18 31 -18 37 19 -21 -22 22 -24 -25 -26 -27 55 28 39 49 -32 -33 46 -35 -36 36 51 64 -40 40 -42 -43 -44 -45 50 -47 54 -49 -50 -51 -52 -53 53 -55 -56 58 57 -59 59 60 -62 -63 -64 -65 -66 -67
leaf_value=0.009612594541036695 0.0080561183629465159 0.011413438719258467 0.0095345659880549365 -0.073034441499357158 -0.073431410906179995 0.0037004200764867807 0.014736915202665055 0.010346197014047246 0.0048130751315669847 0.012047025627439971 0.0043495433390324401 0.014037616992875991 0.0056403378685088721 0.0089674298819303819 0.0020166619574681628 0.0077630010831705636 -0.061267274350619079 0.0026049876111169652 -0.05244322951770497 0.0085793319049719905 -0.071276379678251289 -0.046200524518344839 0.010962890945585032 -0.063632039715888156 0.0035817346499306029 0.004348887049325843 0.012811969297063963 0.0056671729871118409 0.01251550973655532 0.011856304812105778 -0.049639458332392472 0.013848507001427333 0.012168231506999388 -0.041744927235276723 0.002040061399930064 0.0030702416927062388 -0.0045414999558946213 -0.031035960817008958 -0.04699797680495478 -0.051885336992414745 0.01299402797673112 -0.0023930725302307092 0.01335078426688013 0.014182564975864622 -0.033714292251921893 -0.045520828550215005 -0.020736684275889719 0.014632491865510737 -0.034363353816254091 -0.0085535491669162661 0.0031134295759123534 0.013124086541610028 -0.015700536321974771 0.0047071752717882734 0.003052621575131476 0.014370873915815872 -0.034262675380010661 0.011817585031202013 -0.0099411993941994105 0.0091197196535680522 0.01372218691742442 0.0053321974237092885 -0.019297339756850104 0.0014030894835387331 -0.062423163630307768 0.0054274758141980737
leaf_weight=3.4472296535968772 2.2694691941142073 6.1771979406476003 3.3625749126076725 15.282288029789926 407.17443113029003 0.64101418107747976 86.254188321530819 4.3477740213274911 0.93054011464118946 7.9252368211746198 0.80881366133689603 26.912012696266174 1.1740993857383717 2.8926941305398932 0.30740983039140701 2.0910590663552289 3.8927013278007507 0.41474099457263847 2.7448049187660222 2.6291766390204421 11.508594825863838 2.2575546205043775 5.3166051805019379 5.2332802340388298 0.61896467953920264 0.80867204070091236 11.248538732528688 7.5756475180387497 146.53757637739182 25.841962240636352 7.6012995913624746 22.16022764891386 8.2416957467794401 1.6946665048599232 0.31085723638534446 0.50946425646543536 2.6022425293922486 1.1602166891098025 2.3481233790516853 1.9028363823890675 12.428498379886149 13.470759153366087 15.063672050833706 31.312723107635978 0.98521715402603127 2.2970948740839985 0.5196174383163441 199.22744368761778 0.94814682006835926 1.8191307485103596 0.51699012517929077 13.409706629812712 0.93118253350257851 0.90623762458562851 0.50636003911495209 1297.6103952229023 1.0461903810501079 7.2265141904354095 1.6084044501185424 51.875422313809395 464.03609262406826 13.428336642682549 0.62468533217906674 0.20440739393234253 9.9827977791428548 1.119736686348914
leaf_count=33 22 61 32 14 768 6 863 43 9 79 8 269 11 28 3 20 7 4 3 26 21 4 53 10 6 8 112 71 1437 252 32 220 81 3 3 5 22 3 5 2 124 117 148 312 1 3 1 1987 1 14 5 134 5 9 5 12928 2 72 12 496 4605 126 2 2 29 11
internal_value=0 0.0112035 -0.0195521 -0.054685 -0.0727441 0.0124626 0.0125562 -0.000924849 -0.0246031 0.0128852 0.00512131 -0.0091816 -0.0674184 -0.00978726 -0.0199774 -0.000300295 -0.0330482 -0.0443357 -0.000623938 -0.0240635 -0.0663966 0.00610397 -0.0130421 -0.0546513 -0.0732306 -0.0426072 0.0133731 0.0108707 0.00767452 -0.0027856 -0.0245874 0.00788997 -0.0025794 -0.0211684 -0.0733642 0.00836551 -0.000315364 -0.0560628 -0.0390008 0.0102472 -0.000919439 0.0112463 0.0101033 0.0113712 -0.0034564 -0.039093 0.00724531 0.0141014 0.00167946 0.0100278 -0.0264999 0.0100676 -0.0375789 -0.00842779 -0.0128482 0.0139365 0.00810382 0.000454066 0.0139899 0.0130083 0.0132964 0.00272324 -0.0156871 -0.0180452 -0.0581341 -0.01896
internal_weight=0 2579.89 100.326 19.819 410.374 2479.56 2476.58 58.9153 12.341 2417.66 144.302 58.0479 16.4564 80.5066 37.7486 42.758 7.33993 15.5702 22.1784 6.18265 12.3174 46.5743 9.41158 6.16382 408.104 3.55348 2273.36 425.279 217.178 42.838 15.1769 35.418 13.2578 3.78573 407.485 45.7305 18.8185 12.6775 2.98914 174.34 14.3313 160.008 15.9958 37.1627 5.84998 2.80656 9.47208 208.101 8.87338 27.6611 1.50221 16.0119 4.09497 1.83742 1.23038 1848.08 19.5212 8.2727 1828.56 530.948 515.912 15.0367 0.932095 0.724025 12.2628 2.27995
internal_count=25810 25011 694 57 799 24317 24306 512 80 23794 1325 462 25 637 265 372 40 75 190 37 29 432 71 19 777 11 22469 4116 2049 369 103 332 112 23 771 433 164 47 11 1680 126 1554 153 361 49 8 89 2067 80 266 6 156 18 14 8 18353 186 74 18167 5239 5101 138 5 3 43 14
is_linear=0
shrinkage=0.02


Tree=9
num_leaves=75
num_cat=0
split_feature=3 3 8 5 5 10 0 0 9 0 10 9 0 8 0 9 10 0 9 6 6 1 6 10 8 0 6 9 3 6 8 9 0 8 9 10 9 8 9 6 9 10 11 9 10 8 8 10 9 8 8 9 8 8 9 10 3 10 10 6 8 9 8 8 8 10 10 10 8 10 10 9 10 10
split_gain=4017.27 558.427 90.4692 51.3386 153.293 196.36 45.0437 155.958 95.6006 42.0497 38.935 41.6058 29.6869 27.8205 24.5371 21.7083 21.1634 20.7286 20.1063 20.0658 20.0388 19.2768 18.2759 17.4624 73.7839 20.4653 14.787 14.2752 12.9237 12.9061 9.94358 7.48843 5.90637 5.72554 5.59117 5.53897 5.25475 5.12187 4.8691 4.11137 3.52902 2.38265 2.21692 2.60437 2.10717 3.38589 1.7198 6.32891 44.3727 22.2589 7.87529 5.96608 3.9775 3.57581 1.71368 1.39559 6.35864 1.34155 2.56204 1.71868 1.25058 0.912722 0.882609 5.13752 0.741227 4.04304 1.1567 0.483828 6.01896 2.71607 0.438639 2.97404 0.42236 0.382115
threshold=0.81516377480969238 14.819685485979763 32.500000000000007 145.07241245029107 132.90000000000003 -0.67457085115751614 167.42597262562504 176.38962080983507 -0.25702737481839971 173.50000000000003 -0.99887440526539295 0.024759328369708584 240.50000000000003 1.0000000180025095e-35 174.50000000000003 0.33665019370152183 0.99452188484922155 94.729544845435512 0.95735101461868244 -7.1000000000000005 -1.800000000000004 11.795402939651312 2.8740351552610828 -0.99747188198832692 108.50000000000001 162.50000000000003 30.285767515878643 0.38194425539183036 1.5571193601721831 132.85000000000002 16.198242802864502 -0.85651114569761522 132.50000000000003 618.50000000000011 0.061992135454488902 0.98586231358396625 0.95388081782593048 1456.5000000000002 0.8740373472823314 -133.26698499945761 0.49258178676971281 -0.96278024802898754 1.0000000180025095e-35 0.60552550842631814 0.99298271613731315 2.0460520435890461 307.50000000000006 -0.89925579029229186 -0.41045361332760827 328.14294396061467 747.50000000000011 0.30171129762085214 322.50000000000006 530.50000000000011 -1.0000000180025095e-35 0.78351273753498096 1.341640786499996 -0.94870371004805498 -0.99550014709748547 88.000000000000014 40.500000000000007 0.62436256414238722 639.50000000000011 678.50000000000011 310.50000000000006 -0.62020696828980448 -0.65674480777033317 0.74248754952338314 670.50000000000011 0.75073592181629156 -0.87182003487185311 0.41595015277067032 -0.90450167090646827 0.99452188484922155
decision_type=2 2 2 2 2 2 2 2 2 2 2 2 2 2 2 2 2 2 2 2 2 2 2 2 2 2 2 2 2 2 2 2 2 2 2 2 2 2 2 2 2 2 2 2 2 2 2 2 2 2 2 2 2 2 2 2 2 2 2 2 2 2 2 2 2 2 2 2 2 2 2 2 2 2
left_child=2 3 6 4 17 15 10 8 9 22 11 -1 44 36 35 19 18 -2 21 -6 27 29 -8 24 25 -4 -23 -12 55 -5 -14 -19 -29 -26 -27 -10 -7 46 -16 54 70 -21 -22 -44 -9 73 60 48 49 52 62 -52 -48 -51 -3 56 -15 58 -41 -60 -25 -45 -50 -64 65 66 -49 -66 69 -69 71 -39 -55 -46
right_child=1 39 23 16 5 13 7 12 14 -11 20 -13 30 28 38 -17 -18 31 -20 41 42 26 -24 37 33 34 -28 32 -30 -31 -32 -33 -34 -35 -36 -37 -38 40 -40 57 -42 -43 43 61 45 -47 47 64 50 53 51 -53 -54 72 -56 -57 -58 -59 59 -61 -62 -63 63 -65 67 -67 -68 68 -70 -71 -72 -73 -74 -75
leaf_value=-0.010020396214778668 -0.0047246150208624781 -0.0043180908728205104 -0.0061529492509404468 0.081934787875267145 -0.0096321889473907525 0.077979499552848441 0.088105985073284807 -0.014015155151939898 -0.012373681259620531 -0.0072159231223918622 -0.008544934563277486 0.069118476571638818 -0.0053752611549395266 -0.0074713590239488563 -0.0028883882141453867 -0.013679653857982883 -0.0050113682848716987 -0.0022052928239584711 -0.0046486769938837496 -0.0016129975914630989 -0.013547458216382636 0.048141116911615919 -0.0039030866926272533 -0.0090674122586197579 -0.013721295605198422 0.07289352454359882 -0.0081725465110928878 -0.003477731571234171 -0.0083741998726550582 -0.0032318252960689816 0.053155248931907692 0.080479848804994439 0.052940689219922725 0.018082666877893418 -0.0019849400000598216 0.020724105085748817 -0.0017302528368210296 0.020562771250191871 0.053622957866881898 -0.0095969393069966821 -0.008670193925577014 0.051713732094502474 -0.0081217928977706834 0.021122397319241381 0.021242322066312571 -0.0087831705734280081 -0.0016369171936876192 -0.0026730580697772672 -0.014051456478742359 -0.0091159492377330693 0.03021211027695174 -0.0075128475895073392 0.068349806416619002 -0.001105880906981568 0.02153249093020921 0.049999832928409579 0.032806510038444127 -0.013920922832008161 0.021792259091014437 -0.0042663176107567268 -0.01395911906230273 -0.0024124872426302961 0.021978855862105122 -0.011165253668165223 -0.013274600886559971 -0.01092350045734132 0.02326052730160896 0.0060358475848091009 0.021731269330566981 -0.011907726739194076 0.02295159894135778 -0.0073975154753955505 0.021621525077098035 -0.0010231302638041364
leaf_weight=4.4029533565044394 0.9519740417599668 0.81623893976211548 1.4587510377168644 168.74326775968075 3.3294348195195198 24.06631983071566 15.174363672733305 46.505995824933052 11.357122629880902 1.9447748661041266 2.8116378486156455 3.3624119758605957 1.1642935946583741 1.9653967097401612 0.48969386518001479 22.047873318195343 0.95120929181575675 0.33488184958696265 0.90510310232639213 0.23260024935007129 87.966875225305557 2.2682117223739615 0.73497643321752626 36.32695035636425 33.483091533184052 4.4956701099872589 2.4342551827430725 0.62453877180814776 2.5376219153404236 0.5652204230427732 1.9720492288470266 72.277985326945782 1.9867578893899915 0.73303854465484519 0.31404150277376164 0.53103448450565416 0.24816346168517966 0.54210883378982622 1.9427711963653564 3.6472623497247696 2.9429104253649712 2.9371598288416889 2.529584132134914 0.49475347995758046 0.48707729578018133 3.0503820776939392 0.25018616020679418 0.45000035315752029 58.844651319086552 3.3415664657950406 1.3338640332221978 2.1282221078872681 2.6955773234367371 0.16291710734367371 0.46861419081687816 2.1526992321014404 1.1325818896293638 30.276223078370094 0.4522205889224995 0.80464661121368408 898.77984345704317 0.39453272521495819 0.44461596012115379 6.5936869978904724 549.37002669274807 6.0559842437505713 0.36207637190818776 2.3414359241724005 0.46052736043929954 100.87240535765886 0.38067874312400718 2.0601990446448326 0.46764228492975224 0.15111495554447174
leaf_count=58 12 1 19 378 6 50 29 473 144 25 36 7 15 4 6 27 8 3 10 2 1166 4 10 478 427 9 3 8 3 7 5 155 6 5 4 3 2 3 4 9 39 6 34 1 1 41 3 6 790 44 8 28 6 2 1 4 2 96 1 1 12111 5 2 88 7371 82 1 28 2 1350 1 27 2 2
internal_value=0 0.0625544 -0.0112814 0.0712127 0.0594776 0.0342051 0.00179415 0.0124108 0.0458067 0.0742428 -0.00695659 0.0313846 -0.00866461 0.0666082 0.0056008 -0.00420934 0.0793989 0.0788566 0.0799094 0.0235768 -0.0106051 0.080397 0.0838942 -0.0127287 0.000239244 0.0541355 0.02525 0.0216652 0.0248028 0.0816161 0.0377947 0.0800496 0.0437912 -0.012079 0.0688574 -0.00812371 0.0770963 -0.0130417 0.0460764 -0.0109461 0.00429249 0.0486904 -0.012943 0.0018694 -0.0129045 0.00110257 -0.0131082 -0.0122086 -0.00649019 0.0358299 -0.0115981 0.0127622 0.0641475 0.0003799 0.0124799 0.0387242 0.0143473 -0.0124269 -0.00184274 0.0127343 -0.0137888 0.0162387 -0.0132165 -0.00467132 -0.0128478 -0.00446607 0.0172094 -0.0129221 -0.010838 -0.0113937 0.0154281 0.0048318 0.0193732 0.0191913
internal_weight=0 346.547 1907.77 310.082 134.215 60.6499 190.08 85.5057 32.1747 17.8541 104.574 7.76537 53.3309 32.1028 14.3206 28.5471 175.867 73.5648 174.916 6.49919 96.8087 174.011 15.9093 1717.69 40.4846 6.26846 4.70247 5.42293 7.7883 169.308 3.13634 72.6129 2.6113 34.2161 4.80971 11.8882 24.3145 1677.21 2.43247 36.4652 5.9259 3.16976 91.3857 3.41887 50.1946 3.68857 1671.28 736.175 76.2629 6.91789 69.345 3.46209 2.94576 3.97213 1.28485 5.25068 3.09798 35.1804 4.90413 1.25687 935.107 0.889286 65.883 7.0383 659.912 6.86806 0.812077 653.044 103.674 103.214 2.98299 2.60231 0.630559 0.638192
internal_count=25810 795 25015 686 276 106 2079 758 221 64 1321 65 537 65 157 41 410 170 402 14 1256 392 39 22936 464 32 7 50 13 385 20 158 14 432 13 147 52 22472 10 109 70 8 1206 40 517 44 22402 9813 973 57 916 36 9 48 2 10 6 107 11 2 12589 6 880 90 8840 89 7 8751 1380 1378 31 30 4 3
is_linear=0
shrinkage=0.02


Tree=10
num_leaves=54
num_cat=0
split_feature=4 3 2 0 5 6 10 1 6 10 0 0 3 5 10 8 10 4 10 1 10 8 8 10 2 6 5 1 8 10 8 5 4 5 0 0 10 8 8 10 0 0 0 8 0 1 3 10 10 1 0 0 2
split_gain=1649.42 373.641 297.961 265.105 195.429 143.623 111.621 100.555 48.0965 66.7979 71.1855 43.3014 42.643 40.2947 32.5363 27.3741 20.4773 22.7809 22.0645 19.8054 17.1538 20.4871 52.6754 16.781 14.9725 14.3104 13.7203 13.2502 12.5226 9.85195 8.50439 8.49478 8.43093 7.88053 18.3604 7.55608 31.3143 30.1323 18.0455 9.25315 24.7403 6.2288 6.85714 5.60012 12.9271 5.2705 9.2895 3.83125 6.32795 3.33274 2.76095 13.5589 1.04181
threshold=8.174897671012781 1.0000000180025095e-35 -3.8369594673044118 147.50000000000003 132.90000000000003 8.7999999999999847 -0.025413620846505364 -20.216219986890035 2.8740351552610828 0.97025172695741879 215.50000000000003 231.50000000000003 4.8682645778552525 113.30000000000001 0.97871840586055103 50.164698870244273 -0.87746027903624402 42.110997507908927 -0.99432246761653198 -7.4999999999999991 -0.98987453059520025 364.50000000000006 373.50000000000006 -0.65674480777033317 -1.7810086037073065 140.59999999999999 154.70000000000002 11.795402939651312 373.50000000000006 -0.81472739448971809 2.0460520435890461 125.10000000000001 6.4999998735662698 140.8721203706227 140.14067216801672 133.7174500456139 0.9445675347699336 462.50000000000006 211.32214164652203 -0.82826413177898128 113.653111848195 144.36129369806477 197.23343409872351 193.50000000000003 100.50000000000001 -5.9320973476324248 4.3817804600413632 0.65375084145347639 0.64398454865053323 -6.5910451128608916 127.34411337936854 144.36129369806477 -12.499999999999998
decision_type=2 2 2 2 2 2 2 2 2 2 2 2 2 2 2 2 2 2 2 2 2 2 2 2 2 2 2 2 2 2 2 2 2 2 2 2 2 2 2 2 2 2 2 2 2 2 2 2 2 2 2 2 2
left_child=1 8 12 4 15 7 29 26 20 -10 -11 13 45 -7 -5 -4 17 18 -15 23 21 43 41 32 -16 -18 31 -21 -17 -6 47 -2 52 34 35 39 37 -37 -38 40 -32 -23 -43 -1 -45 46 -3 48 -22 -48 -46 -52 -14
right_child=5 2 3 14 6 11 -8 -9 9 10 -12 -13 19 16 24 28 25 -19 -20 27 30 22 -24 -25 -26 -27 -28 -29 -30 -31 33 -33 -34 -35 -36 36 38 -39 -40 -41 -42 42 -44 44 50 -47 49 -49 -50 -51 51 -53 -54
leaf_value=-0.012337969083870309 -0.0014604098975029875 -0.0092967785954638279 -0.010626726583099202 -0.012200774455280684 -0.0010829013638143782 -0.0036303543632405224 -0.0071080712005765047 -0.010707605177033983 -0.011183774603043111 0.11607481527260126 -0.0078986294485243174 -0.0039635691614217268 -0.00025741078098142614 0.09384113833570068 -0.0047735164890926338 0.074365432322303429 0.14995667600464985 -0.0055811362938519658 -0.0043980474022727555 -0.0098363741006950306 -0.0048598820376434173 -0.001462207732038268 -0.0098206509215526937 -0.0043458516831250908 0.075214824366700808 -0.0013459805563795333 -0.0024152393709731984 0.044547016651777877 -0.0041321173627851468 0.13983732458680154 -0.0097079153453101408 0.10967587154263131 -0.0020062247601527598 -0.013697430456521123 0.047306108373715711 -0.012957437077701089 -0.0050456547014837774 0.041210714085361928 0.08146831762245503 -0.012944328306988462 0.027228539393633868 0.10030282798318109 -0.0014162019444792439 0.047568182685053972 -0.010618704134566085 -0.013199055042227124 -0.0028058551638113429 -0.0056989388105327865 0.045843355694559079 0.044027854835964775 0.046034669791236507 -0.009687474974408224 0.092630907302286597
leaf_weight=17.180589299649004 0.23406647518277157 4.0661302581429473 6.5650974027812499 14.693184021860363 0.16931544244290009 0.70882328599691291 2.1041113473474971 6.6426318716257793 8.6781405564397556 2.6613953709602347 2.6787198409438133 0.79219347797334094 0.037755686789750942 3.6108423322439189 1.049948453903198 0.93503814935684182 28.446672584861524 1.2685836553573606 0.88588803261518068 4.8815943561494333 1.0896617099642747 0.23768928647041221 4.9818344358354807 0.91033063828945149 0.90760540962219138 0.21640897914767165 0.42097923904657353 0.45443975925445546 0.84818576276302338 20.685850322246552 33.3003602437675 3.8298037573695183 0.33810980618000019 445.40629365108907 0.34533733129501243 32.041426042094827 1.1556825898587693 2.7092513889074317 0.71920951455831517 173.85444118268788 7.1404493656009427 1.2829042002558706 0.22850489616394032 0.33543774485587974 6.7551461178809387 39.680706799030304 0.50704272091388702 1.4079512953758238 0.4029401410371064 0.47601142525672901 0.39448446035385121 4.7388107813894749 1.516140937805176
leaf_count=512 6 25 45 128 1 20 15 89 295 11 67 20 1 12 11 2 62 9 4 41 32 8 165 6 2 7 4 1 5 35 1104 8 2 15012 1 1046 38 67 4 5913 209 5 7 1 229 321 3 34 3 1 1 157 3
internal_value=0 -0.00561385 0.0301641 0.0651893 0.097764 0.113646 0.125837 0.0409627 -0.0104929 0.0240159 0.0686795 0.13281 -0.0028263 0.135941 2.50005e-05 0.011159 0.138856 0.0638214 0.0790914 0.0344718 -0.0112137 0.00211647 0.0291252 0.0641022 0.0515814 0.148801 0.0971925 0.00567719 0.0545821 0.138699 -0.0119064 0.104904 0.0823452 -0.0120642 -0.00908369 -0.00953476 -0.00107212 -0.00672145 0.0530613 -0.0109578 -0.00221042 0.0861158 0.0928768 -0.00552718 0.0044342 -0.0107974 0.00646651 0.0154517 0.0272414 0.0341861 -0.00345763 0.00630105 0.0914992
internal_weight=0 850.553 100.827 47.9583 31.3076 47.0569 22.9593 11.1275 749.727 14.0183 5.34012 35.9294 52.8683 35.1372 16.6507 8.34832 34.4284 5.76531 4.49673 8.13837 735.708 36.1354 6.73093 2.80234 1.95755 28.6631 4.48485 5.33603 1.78322 20.8552 699.573 4.06387 1.89201 696.672 251.266 250.921 36.6256 34.7507 1.87489 214.295 40.4408 1.7491 1.51141 29.4045 12.2239 44.7299 5.04918 2.90055 1.4926 0.983054 11.8884 5.1333 1.5539
internal_count=25810 25569 648 244 103 241 51 107 24921 373 78 134 404 114 141 52 94 25 16 54 24548 1085 185 12 13 69 18 42 7 36 23463 14 6 23394 8382 8381 1155 1113 42 7226 1313 20 12 900 388 350 29 69 35 4 387 158 4
is_linear=0
shrinkage=0.02


Tree=11
num_leaves=67
num_cat=0
split_feature=3 8 4 5 5 10 10 8 8 8 10 9 6 10 10 6 5 10 9 5 6 8 5 5 6 5 4 10 8 9 8 9 4 4 4 9 10 9 8 9 8 9 8 6 5 8 5 5 5 9 4 8 9 9 5 8 10 10 10 10 8 8 10 10 8 8
split_gain=5504.68 242.249 84.5172 35.203 31.1246 27.3733 25.7965 24.48 37.8267 22.4459 49.5345 135.507 21.7099 20.9861 35.2955 37.8891 32.3056 29.8621 28.3342 15.7207 13.9095 12.7845 18.0297 11.6545 11.5192 10.871 10.6907 7.3501 10.5435 14.6732 31.1272 30.8317 6.32256 5.98819 6.05717 5.48436 4.9743 30.9823 7.08339 4.87521 4.76425 4.32664 7.41032 4.17592 3.38263 11.9706 2.98443 2.47406 2.29882 1.63655 1.49657 1.34281 1.99614 1.61507 1.25057 0.890187 1.92512 11.9651 0.811892 4.4113 0.810064 3.79806 1.70508 1.64442 0.425526 0.444576
threshold=1.0000000180025095e-35 10.500000000000002 41.340316107241883 94.300000000000011 243.40000000000003 -0.99747188198832692 0.97340425390991892 108.50000000000001 98.500000000000014 32.500000000000007 0.69942949195331949 -0.63200112405248754 132.85000000000002 0.47239053125898317 0.79929151311686419 19.500000000000004 141.67621034408549 -0.99887440526539295 0.024759328369708584 231.70000000000002 2.8740351552610828 364.50000000000006 220.70000000000002 170.70000000000002 76.500000000000014 162.50000000000003 60.033502005581951 -0.81472739448971809 226.50000000000003 -0.39881575414309317 328.14294396061467 -0.4990550142209324 18.822112362733048 9.8375691253846842 10.221087330256985 -0.23287962002963955 -0.84133394310126874 0.53499761953343061 747.50000000000011 0.99752585497121471 16.198242802864502 -0.048268679194724266 301.50000000000006 -3.8500000000000081 99.300000000000026 193.50000000000003 197.90000000000003 209.80000000000004 197.90000000000003 0.012071567424830751 5.2142439003349219 2.0460520435890461 0.74384998968867266 0.89052730907880273 125.7 36.500000000000007 0.72562461584183513 0.76751489368499237 -0.93677401090780077 -0.94079451487231947 436.50000000000006 442.50000000000006 -0.69195944339767224 -0.62948991636111618 14.500000000000002 12.500000000000002
decision_type=2 2 2 2 2 2 2 2 2 2 2 2 2 2 2 2 2 2 2 2 2 2 2 2 2 2 2 2 2 2 2 2 2 2 2 2 2 2 2 2 2 2 2 2 2 2 2 2 2 2 2 2 2 2 2 2 2 2 2 2 2 2 2 2 2 2
left_child=1 2 13 -2 5 7 -4 8 -3 10 -7 23 26 17 16 43 -15 18 -1 -17 64 41 49 -12 35 -10 39 28 44 30 31 -30 47 51 -35 -22 38 -38 -31 -5 -6 42 -9 50 45 -11 -32 -18 -44 -23 -16 52 -19 -54 -51 56 -29 -58 59 -53 -57 63 -63 -62 65 -13
right_child=3 4 6 12 40 9 -8 21 25 27 11 20 -14 14 15 19 32 33 -20 -21 24 22 -24 -25 -26 -27 -28 55 29 36 46 -33 -34 34 -36 -37 37 -39 -40 -41 -42 -43 48 -45 -46 -47 -48 -49 -50 54 -52 58 53 -55 -56 60 57 -59 -60 -61 61 62 -64 -65 -66 -67
leaf_value=0.0095934035280316292 0.007981415233038875 0.01133740473189386 0.0073241230547816281 -0.065536586909539479 0.0036732126055909081 0.014682159289652249 -0.063828590083055275 0.010258921657609622 0.0047737335787279237 0.01196359719268345 0.004319512086135591 0.0098758979141634392 0.0061854010843338846 0.0096311676240345718 0.0041079486090033809 -0.056134674539844276 -0.056573623581863873 0.0084486775057078106 -0.05737919006829257 0.0067577511358851983 0.0043042118815503662 -0.04454275809699923 0.010874692897964869 -0.064286460288917727 0.0092708152906253102 -0.058759341180808777 0.0038758382512889419 0.012747039373582758 0.0055278387006471013 0.012423809971833526 0.011762852449670078 -0.046866753838349186 0.0032614972824723714 -0.030189451216685939 0.0078638339144958425 -0.043503332627619636 -0.050067373773463826 0.012918946132189094 -0.0024226557593968823 0.0020287615004525019 -0.044960430202978879 0.014121125911963656 -0.033024295781834662 0.013549821301908778 0.014575523628339526 -0.033867203802114089 -0.008490847915421533 0.0013969459511127386 0.0030756106230025431 -0.015495072697394575 -0.020314407916696534 0.011007533671511294 -0.020538665366095856 0.004340179677983386 0.0046515143222295328 0.014308025210541061 -0.033930283425016833 0.011748279902056609 0.013818106103370769 -0.019463340263391034 -0.0099686518712328431 0.0089932556338360101 0.013648159934640879 0.0051851903398659558 0.014104125607852611 0.0009602671504744544
leaf_weight=3.430914767086505 2.2359613478183737 6.0742345377802831 1.8665321469306952 444.6303381845355 0.63591655343770925 84.397610940039158 15.751501567661762 4.2698309049010232 0.92150160670280445 7.7704585790634138 0.802362419664857 3.8265790939331037 1.3709776327013958 3.487193331122401 0.73977370560169819 4.1002649068832389 12.533944554626936 2.5349995344877239 4.1922864317893982 1.6185833960771558 0.79905842244625125 2.3695552200078946 5.2164041623473167 12.630412012338638 3.1939421594142914 5.6844280213117599 0.67306888848543067 11.060803338885309 7.4632578939199439 143.74971802532673 25.377278365194801 8.009932912886141 0.54275792092084962 1.3068284094333642 2.1009489670395851 2.435421794652938 2.0070974826812735 12.181595511734484 13.446596711874006 0.30917610228061576 2.4864446297287941 30.669263064861301 1.0254290103912351 17.441159375011921 195.0084975361824 0.97641801834106434 1.8282210156321514 0.20355078577995378 0.51039997488260258 0.9492053687572477 0.54713201522827148 5.4012630879878998 0.53248280286788918 0.80674250423908234 0.8935006856918335 1270.1684904918075 1.065587043762205 7.1118920743465424 22.53750287741423 0.60343122482299705 1.604798927903176 51.056909583508968 454.56257905066013 13.24202091991901 30.360379427671432 4.4100079908967018
leaf_count=33 22 61 18 755 6 863 15 43 9 79 8 39 13 34 7 4 39 25 7 16 8 4 53 21 32 10 6 112 71 1437 252 32 5 3 19 3 2 124 117 3 5 312 1 173 1987 1 14 2 5 5 1 54 1 8 9 12928 2 72 229 1 12 496 4605 126 310 41
internal_value=0 0.0110993 -0.018798 -0.0647156 0.0123709 0.0124658 -0.0563122 -0.00100658 -0.0235723 0.0127993 0.00502174 -0.00894959 -0.0651131 -0.00987186 -0.0197403 -0.00359389 -0.0403901 -5.38397e-05 -0.031508 -0.0411956 0.00823719 0.00595074 -0.0129844 -0.0601598 -0.015751 -0.050847 -0.0653592 0.0132931 0.0107576 0.00753778 -0.00284905 -0.0238549 -0.0530663 0.00795154 -0.0124972 -0.0345608 0.0101274 -0.00107566 0.0111394 -0.0654808 -0.0374886 0.011266 -0.00357048 0.0107553 0.0140341 0.00149689 0.00991355 -0.0555834 -0.0260736 -0.0365199 -0.0123182 0.0107025 -0.000258298 -0.0119285 -0.00838966 0.0138659 0.00798178 0.000297993 0.0121098 0.00384752 0.0139201 0.0129223 0.0132154 0.00255822 0.0128116 0.00622258
internal_weight=0 2534.53 102.28 449.22 2432.25 2429.13 17.618 58.5838 12.6802 2370.55 142.856 58.4582 446.984 84.6618 41.2144 24.4469 16.7674 43.4474 7.6232 5.71885 45.0254 45.9036 9.42867 13.4328 6.42842 6.60593 445.613 2227.69 417.819 214.064 42.6787 15.4732 13.2803 35.8242 3.40778 3.23448 171.385 14.1887 157.196 444.94 3.12236 36.4749 5.80566 18.7281 203.755 8.74688 27.2055 12.7375 1.53583 4.21226 1.28691 32.4164 3.87422 1.33923 1.84271 1809.87 19.2383 8.17748 28.5422 6.00469 1790.63 520.466 505.619 14.8468 38.597 8.23659
internal_count=25810 25011 694 799 24317 24306 33 512 80 23794 1325 462 777 661 281 201 80 380 40 20 433 432 71 29 43 19 764 22469 4116 2049 369 103 46 340 22 11 1680 126 1554 758 11 361 49 181 2067 80 266 41 6 18 8 318 34 9 14 18353 186 74 284 55 18167 5239 5101 138 390 80
is_linear=0
shrinkage=0.02


Tree=12
num_leaves=73
num_cat=0
split_feature=3 3 2 5 5 10 8 5 5 10 10 10 7 7 10 8 5 5 5 10 10 6 5 10 4 10 5 6 10 8 8 10 5 6 8 5 10 8 10 8 2 5 10 10 6 3 8 4 8 10 10 8 8 10 10 8 10 8 8 10 4 5 5 8 10 10 2 10 8 10 10 3
split_gain=3559.51 475.122 98.5818 39.6565 141.945 150.435 32.1807 45.3919 157.967 74.0072 19.7577 24.0214 19.6873 51.7618 17.6306 71.5013 17.225 16.8129 14.66 14.2614 14.0793 15.6156 13.9535 12.6854 12.2555 9.55633 8.08351 7.94713 7.53139 7.18786 7.07773 7.04565 8.31973 5.75568 5.65136 5.44665 5.15811 5.13931 4.92127 4.91376 4.02515 3.95557 3.02109 2.54527 2.32387 2.29664 2.16054 3.25767 2.11761 6.37263 33.1689 30.9409 7.74348 5.14262 2.02812 1.82916 1.71914 1.31757 1.28764 1.2735 3.78402 0.881698 13.1932 0.763774 4.0166 1.1404 0.624927 0.513533 5.97857 0.321025 2.81592 0.205814
threshold=0.81516377480969238 14.819685485979763 -1.7810086037073065 143.00000000000003 134.06632296086829 -0.67457085115751614 36.500000000000007 168.70000000000002 176.80000000000004 0.47239053125898317 0.68143971265298497 -0.93250776450824124 0.23550071443221329 0.9330741867185649 -0.99747188198832692 108.50000000000001 132.90000000000003 97.100000000000009 162.50000000000003 -0.99887440526539295 -0.80788274681819783 -7.1000000000000005 170.70000000000002 0.99452188484922155 0.94574616980656023 -0.94480603647367023 109.80000000000001 132.85000000000002 0.99452188484922155 40.500000000000007 6.1848324872852549 -0.99935215241779918 169.90000000000003 -1.800000000000004 618.50000000000011 107.20000000000002 0.99706946335768853 1456.5000000000002 0.9987230311248767 6.1848324872852549 -141.54939447350384 245.80000000000004 -0.8658435322503496 0.98586231358396625 -11.950000000000001 1.341640786500111 2.0460520435890461 2.7264140062236955 307.50000000000006 -0.89925579029229186 -0.90949324865748926 328.14294396061467 747.50000000000011 -0.95239578956979398 0.98789226397179331 530.50000000000011 0.97340425390991892 322.50000000000006 639.50000000000011 -0.94870371004805498 42.110997507908927 173.70000000000002 175.80000000000004 310.50000000000006 -0.62020696828980448 -0.65674480777033317 119.50000000000001 0.74248754952338314 670.50000000000011 -0.90949324865748926 -0.87182003487185311 1.341640786499865
decision_type=2 2 2 2 2 2 2 2 2 2 2 2 2 2 2 2 2 2 2 2 2 2 2 2 2 2 2 2 2 2 2 2 2 2 2 2 2 2 2 2 2 2 2 2 2 2 2 2 2 2 2 2 2 2 2 2 2 2 2 2 2 2 2 2 2 2 2 2 2 2 2 2
left_child=2 3 10 4 17 20 7 19 9 -9 11 31 23 -14 15 18 -12 -2 -8 26 21 -6 43 -5 -7 45 35 36 29 -18 -24 -1 33 -33 -17 -4 -27 48 44 -35 56 -10 69 -11 -19 -15 47 -13 -16 50 52 57 58 -54 -43 -53 -3 -52 -50 60 -42 -32 -63 64 65 -51 -62 -65 -69 -39 -71 -26
right_child=1 40 6 12 5 24 14 8 41 22 16 46 13 25 37 34 28 38 -20 -21 -22 -23 30 -25 71 27 -28 -29 -30 -31 61 32 -34 39 -36 -37 -38 42 -40 -41 59 54 -44 -45 -46 -47 -48 -49 49 63 51 55 53 -55 -56 -57 -58 -59 -60 -61 66 62 -64 67 -66 -67 -68 68 -70 70 -72 -73
leaf_value=-0.0055485365432669746 -0.0047696436550307645 0.021083446137906674 -0.004194078966851064 0.074329458655060215 -0.010079425552222403 -0.0046712278130865686 -0.0053035532063453175 -0.011022054174206302 -0.014025707951578098 -0.0064498549423606076 -0.0077871916337431913 0.02198387477386695 -0.010285591760530016 -0.0064195199244840928 -0.013856495561738307 -0.013682015475070964 0.052474031173146821 -0.00095444779782753513 0.063472358667172032 -0.014206617858261179 -0.01366966282547085 0.040818813613979578 -0.0024821099184398634 -0.0038386574958820226 0.019624754648053178 0.063133161298067342 -0.0077609097579172731 -0.0032113315986785356 -0.0042407678110437047 -0.0037860401125941068 0.077189902951542516 -0.0033747047181817962 -0.005155351437045875 0.055823783761675239 0.017831583891528512 0.044512706651131599 -0.0022986500238218813 0.020413012122232375 -0.0019163996013879081 -0.0026250933831305878 -0.010224600004553702 -0.005341241920686142 -0.008334957915786886 0.020602953714648115 0.070655078332040322 0.019532197987095139 -0.012286056575453419 -0.007529096695421505 -0.014009237889233295 -0.0026422940112705053 -0.00063360385724439488 -0.0097405643902210813 0.027811440894192584 -0.0072258147595336067 0.020277187507977402 0.0079496886280726823 -0.0044467997087958072 0.064092578749015902 -0.0027758926262812277 -0.013985407558548574 0.021330005792970733 -0.0070609125780920004 0.050783572934722465 -0.013216978787031103 -0.010846521688348402 0.023211190885121195 -0.0016564142277285519 -0.011302029155681872 0.021679017824892535 -0.0073802626007343913 0.019583588554163762 0.063352740280888081
leaf_weight=1.2276062443852422 0.9626588299870481 0.49725234508514293 0.81155251711606902 161.04695850610733 3.5856424421072006 0.89602279663086193 1.1436218917369831 6.3438502475619343 48.766386277973652 1.5726464614272146 2.2921650037169448 0.44021135568619074 4.330206334590911 1.3809473142027844 892.84385639429092 32.8536436855793 10.910378776490683 0.12859781086444755 5.2586087360978127 95.072072565555573 21.53704309463501 2.8104903846979168 0.40695656090975063 0.64217500388622184 2.3131527379155186 31.98232988268137 2.2921397984027863 0.56119898706674476 0.82276178151369173 0.69933702051639635 13.248774886131288 0.60328415036201466 1.090140603482723 4.3563669547438613 0.75298351049423118 1.5321940183639526 0.34898378700017829 0.55245286226272616 0.27195067703723808 0.44120405614376057 4.3417549431323996 1.1543058678507794 2.6842641532421103 0.53934364020824421 82.503887198865414 0.59883797168731678 10.993616238236426 2.1356916576623917 57.012189999222755 0.4443562850356102 0.089185819029806601 4.0651282444596291 1.520922586321831 1.9685045182704914 0.55700720101594914 1.9665655419230459 0.8451802134513855 2.9407342672348022 5.5949436053633681 30.995382770895958 0.48148158192634571 1.8620834499597543 2.1056482791900635 537.37130522727966 5.9340017661452285 0.36503389477729786 0.2528756856918335 101.13154265284538 0.4639061838388433 2.0521415546536454 0.61506830900907461 23.477763086557388
leaf_count=16 12 1 11 300 5 1 15 88 512 12 30 1 5 11 12304 427 57 1 13 1296 26 7 5 5 5 92 31 7 11 9 23 8 14 15 5 3 3 3 2 6 7 15 36 3 160 1 150 28 781 6 1 55 10 26 2 22 1 6 72 96 1 24 4 7365 82 1 3 1378 2 27 4 43
internal_value=0 0.0560235 -0.011197 0.0634439 0.0530556 0.0265545 -0.0118465 -0.00367071 0.00779793 0.0459276 0.0207961 0.00724277 0.0700117 0.0508643 -0.0127094 0.000387314 0.0371814 0.0692944 0.0528489 -0.0124567 -0.00606969 0.0166813 0.0635635 0.0739759 0.0587446 0.0586035 0.0168967 0.0610958 0.0454024 0.0490267 0.0689127 0.0314658 0.0381241 0.0458924 -0.012014 0.0334816 0.0623341 -0.013033 0.0702465 0.0512577 -0.01109 -0.0129014 0.00434805 0.00711941 0.0705237 0.00730114 -0.00880779 0.00491865 -0.0131018 -0.0121314 -0.00636039 0.0260175 -0.0114331 0.0126145 0.00943089 -0.00342951 0.011967 0.062693 -0.0131224 -0.0125316 -0.00221076 0.070683 0.0303683 -0.0127814 -0.00430265 0.0172409 0.0179926 -0.0128572 -0.0107358 0.0140641 0.00456516 0.0611254
internal_weight=0 376.793 1871.9 339.379 138.487 54.6201 1835.89 176.265 76.557 26.0793 36.0128 21.2881 200.892 39.2025 1659.62 40.0089 14.7246 83.8671 6.40223 99.708 27.9332 6.39613 19.7355 161.689 26.6869 34.8723 4.63589 32.8925 12.4325 11.6097 17.6235 7.7186 6.491 5.40086 33.6066 2.34375 32.3313 1619.62 82.9044 4.79757 37.4139 50.4777 5.90393 2.11199 82.6325 1.97979 13.5695 2.5759 1613.71 720.868 75.1582 9.06161 66.0966 3.48943 1.71131 6.03169 1.34243 3.02992 62.6071 36.0715 5.07611 17.2165 3.96773 645.71 6.74339 0.80939 0.734357 638.967 101.595 3.21966 2.66721 25.7909
internal_count=25810 795 25015 686 262 87 24670 2029 688 159 345 238 424 119 22641 460 107 175 28 1341 38 12 71 305 49 114 45 102 77 66 56 59 43 29 432 14 95 22181 163 21 109 529 70 15 161 12 179 29 22111 9807 973 84 889 36 17 77 2 7 853 107 11 51 28 8834 89 7 4 8745 1380 34 31 48
is_linear=0
shrinkage=0.02


Tree=13
num_leaves=47
num_cat=0
split_feature=4 7 6 10 10 9 6 0 10 9 10 5 1 7 6 9 10 5 0 0 10 10 9 8 0 0 9 0 6 5 0 9 9 10 8 6 0 0 8 10 8 1 9 4 10 10
split_gain=1405.54 303.192 238.779 190.234 183.009 171.834 81.155 72.6745 79.7818 63.7953 62.3569 59.319 45.8199 45.1412 43.4147 42.7462 42.485 33.5291 32.1875 22.9394 18.102 16.6266 23.924 31.7793 36.6772 34.9167 12.5274 11.9778 9.82291 8.69063 17.7884 10.5493 71.0298 43.836 40.0983 11.2234 8.2259 7.34883 40.3788 11.4488 6.75698 6.61215 7.29918 5.59673 5.22298 4.86469
threshold=8.174897671012781 0.9330741867185649 -3.6869594673044062 0.012398792120811008 -0.72417185952257712 0.72769793782089287 1.1068788786778025 205.92366533400727 0.97025172695741879 -0.085779197948535682 -0.87746027903624402 150.10000000000002 -5.9320973476324248 0.23550071443221329 2.8740351552610828 0.75179182470341643 -0.65674480777033317 113.30000000000001 231.50000000000003 128.23204514697744 0.99799922533558816 -0.98987453059520025 1.0000000180025095e-35 193.50000000000003 154.50000000000003 127.34411337936854 0.012071567424830751 100.50000000000001 -12.64999999999999 140.50000000000003 140.14067216801672 -0.22073289800989154 -0.25702737481839971 -0.94079451487231947 211.32214164652203 -1.0000000180025095e-35 182.81058393983903 133.7174500456139 462.50000000000006 -0.69195944339767224 2.0460520435890461 2.8926407501554725 -0.23287962002963955 0.94574616980656023 -0.99992756829942242 -0.8658435322503496
decision_type=2 2 2 2 2 2 2 2 2 2 2 2 2 2 2 2 2 2 2 2 2 2 2 2 2 2 2 2 2 2 2 2 2 2 2 2 2 2 2 2 2 2 2 2 2 2
left_child=1 2 12 4 -4 10 21 8 14 -6 11 26 16 -5 36 -11 19 -12 20 -1 -19 22 23 -3 25 27 -2 -25 -21 30 31 32 35 -34 -35 43 -8 -33 -39 -40 -31 42 -10 -23 -27 -37
right_child=5 6 3 13 9 -7 7 -9 41 15 17 -13 -14 -15 -16 -17 -18 18 -20 28 -22 29 -24 24 -26 44 -28 -29 -30 40 -32 37 33 34 -36 45 -38 38 39 -41 -42 -43 -44 -45 -46 -47
leaf_value=-0.0048848838359988106 0.092247815960114984 -0.010864213025581852 -0.010323891004818751 -0.012145072015814487 -0.0060880533151024697 -0.0099078466180241038 0.072040626239230868 -0.011833584552731013 -0.0010904406156217001 0.12377920001006931 -0.0037783242694040104 -0.0096203023819059381 -0.013183544149096489 0.072401361900503822 -0.01097613353002228 -0.0044729388275276342 -0.0094560341015900839 0.12600554996065649 -0.0035810806231802157 -0.0020723138170720013 -0.0022124027128528397 0.044504146066566393 -0.012479288414219764 0.046900553336304392 -0.0087998029482323423 -0.00093566448676862639 -0.0027560508674111823 -0.0085070818031916691 0.096894040368448398 0.00814031381150776 0.046501526970798443 -0.013560329380616949 -0.0072441759871671885 -0.004710634216370739 0.12847728935670893 0.00034918706092130434 -0.0028194625246916287 -0.01209999718643166 0.082367970501941765 -0.0032738710260625322 -0.013687001899253148 -0.0010543622909065873 0.11952847957729629 -0.0045109453941601626 0.10920880942544078 -0.01172037048613131
leaf_weight=1.0846143513917925 3.6873858720064145 7.516100442036989 5.7979234792292145 13.977157190442083 1.5589036010205806 5.0000632330775252 2.3393498659133933 12.19638993963599 0.17110253125429187 21.60198700428009 0.73910776898264785 4.191547941416502 37.805818967521191 1.0010986626148213 7.8471628502011299 0.94433169066905875 4.2625550329685193 38.514019344002008 0.68529194965958495 0.35056078433990512 0.37614073604345222 0.45620816946029552 19.371723545715213 0.36081060767173623 3.5426755808293819 0.14470550417900119 0.48933387920260418 3.2402769364416599 2.421156570315361 4.5224105305969706 0.37621954083442588 142.36289765685797 2.2198650985956192 1.040278693661093 1.4471762552857397 16.339103458449244 0.50996930897235859 14.644367532804607 0.69348287582397461 0.62124710902571567 433.93947198614478 0.16469168663024891 3.4027645885944362 0.96856033988296986 1.9838422052562235 68.517870411276817
leaf_count=7 6 259 36 90 12 74 3 371 5 28 17 28 286 2 241 5 26 80 16 2 9 1 585 1 119 4 11 111 5 71 1 4920 74 35 6 503 3 501 2 19 14854 1 7 22 9 2342
internal_value=0 -0.0055352 0.0285949 0.0603509 0.0879566 0.0982104 -0.00972731 0.0234214 0.0510241 0.110576 0.109268 0.0441948 -0.00366316 0.0013688 0.0155515 0.118481 0.0345123 0.120048 0.122431 0.0697441 0.124718 -0.0110073 0.00210546 0.0184714 0.0399593 0.0645836 0.083829 0.0118091 0.0887548 -0.0117004 -0.00858768 -0.00904023 -0.00350771 0.0593371 0.0955023 -0.00820296 0.0630053 -0.0121364 0.000661408 0.0643416 -0.0134259 0.111724 0.115435 0.0280079 0.104895 -0.00944186
internal_weight=0 841.747 90.8061 44.8814 29.9031 53.6829 750.941 26.6314 14.435 24.1052 48.6828 8.36827 45.9247 14.9783 10.6965 22.5463 8.11889 40.3146 39.5755 3.85633 38.8902 724.309 36.1601 16.7884 9.27231 5.72964 4.17672 3.60109 2.77172 688.149 249.687 249.311 90.9891 4.70732 2.48745 86.2817 2.84932 158.322 15.9591 1.31473 438.462 3.73856 3.57387 1.42477 2.12855 84.857
internal_count=25810 25569 499 173 81 241 25070 631 260 45 167 45 326 92 247 33 40 122 105 14 89 24439 1088 503 244 125 17 112 7 23351 8426 8425 2983 115 41 2868 6 5442 522 21 14925 13 12 23 13 2845
is_linear=0
shrinkage=0.02


Tree=14
num_leaves=67
num_cat=0
split_feature=3 8 4 0 10 8 8 8 10 10 0 10 10 10 6 0 10 6 10 6 0 8 0 0 0 0 0 0 10 8 10 8 0 2 4 4 8 10 2 8 0 2 8 0 8 3 2 2 0 8 8 8 6 0 0 8 8 10 10 4 8 8 10 10 8 8
split_gain=4910.56 234 72.5321 29.9186 27.1741 22.97 34.2976 22.2493 48.017 101.438 28.7027 22.2466 19.7813 31.6298 35.7484 28.8263 28.0962 19.3057 16.3243 16.1452 14.3447 12.5316 17.1679 9.59417 9.21276 11.0287 9.09254 8.10948 7.43102 10.6004 9.89414 31.9624 40.1551 6.09986 7.8652 5.61437 5.44348 5.06896 4.79971 4.41712 4.32853 3.70584 3.65103 3.41927 11.7164 3.38253 3.36756 2.37024 2.24363 2.03341 1.8154 11.0518 1.43909 1.40369 1.21783 1.10206 0.911249 1.94334 11.7777 0.879952 0.842642 3.83061 1.73484 1.61689 0.428447 0.446558
threshold=1.0000000180025095e-35 10.500000000000002 41.340316107241883 240.50000000000003 -0.99747188198832692 108.50000000000001 98.500000000000014 32.500000000000007 0.69942949195331949 0.73405094941255489 170.50000000000003 0.97340425390991892 0.47239053125898317 0.79929151311686419 19.500000000000004 141.50000000000003 -0.99887440526539295 132.85000000000002 -0.99971204459117546 2.8740351552610828 231.50000000000003 364.50000000000006 218.50000000000003 162.50000000000003 94.729544845435512 76.500000000000014 109.50000000000001 231.50000000000003 -0.81472739448971809 226.50000000000003 -0.91435704456078004 328.14294396061467 218.50000000000003 -3.8369594673044118 9.8375691253846842 18.822112362733048 747.50000000000011 -0.95239578956979398 -12.499999999999998 16.198242802864502 245.00000000000003 -30.499999999999996 16.198242802864502 100.50000000000001 193.50000000000003 39.933478636321333 -4.4999999999999991 -11.929487106814177 208.50000000000003 1456.5000000000002 301.50000000000006 304.50000000000006 -0.95000000000000273 144.36129369806477 125.15678171353464 235.50000000000003 36.500000000000007 0.72562461584183513 0.76751489368499237 5.2142439003349219 436.50000000000006 442.50000000000006 -0.69195944339767224 -0.62948991636111618 14.500000000000002 12.500000000000002
decision_type=2 2 2 2 2 2 2 2 2 2 2 2 2 2 2 2 2 2 2 2 2 2 2 2 2 2 2 2 2 2 2 2 2 2 2 2 2 2 2 2 2 2 2 2 2 2 2 2 2 2 2 2 2 2 2 2 2 2 2 2 2 2 2 2 2 2
left_child=1 2 12 4 5 6 -3 8 -6 10 -10 -4 16 15 38 -14 18 24 -1 64 -16 50 53 -8 25 45 -20 42 29 43 36 32 -32 34 41 47 55 -38 59 -5 -26 -18 -21 44 -9 -2 -43 -17 -49 -33 -7 -52 -48 54 -23 -31 57 -30 -59 -15 -58 63 -63 -62 65 -11
right_child=17 3 11 39 7 21 23 28 9 19 -12 -13 13 14 20 35 33 -19 26 27 -22 22 -24 -25 40 -27 -28 -29 56 30 31 49 -34 -35 -36 -37 37 -39 -40 -41 -42 46 -44 -45 -46 -47 52 48 -50 -51 51 -53 -54 -55 -56 -57 60 58 -60 -61 61 62 -64 -65 -66 -67
leaf_value=0.0083663136930472309 0.0029605610265065973 0.011261299876696636 0.0073102987365628756 0.0036484653506544075 0.014629171881864895 0.013902069656109836 0.0047354749560244167 0.011883486625762295 0.0083829150458776033 0.0097938399695498661 -0.058395325125977511 -0.058194899337194031 0.0095488870870411267 0.0025344594617739869 -0.05308984116812817 0.0015009415530207702 -0.017713220946123404 0.0063884332083081353 -0.053632398180506725 0.003472167606829731 0.0067028454578943212 -0.015283014536882012 0.010790925502207949 -0.05454320804017674 -0.059204058083919445 0.0077929680812560288 0.0048017783348572544 0.0076621304733803068 0.012679264847250751 0.0016259770198189618 -0.038166024050665444 0.010534637170863465 0.01240787055404545 0.013794776147176387 -0.030303003817537828 0.0032422178297270587 -0.023122232104339689 0.0085278823631102889 0.013512189649746358 -0.04293052091128377 0.0021296411971632383 0.012453472078285637 -0.039171936469619445 0.014520294710550018 -0.033368481550755856 -0.040898982984579363 -0.018807833100657454 -0.053662962910207536 0.0013804420995976794 -0.00025843663164590232 -0.029708523597808647 0.012315739107983848 0.004304103007251963 -0.042798910559691726 0.0046057051872438531 0.012235200438849996 0.014245784501526708 -0.033618321384958072 0.01167536622408186 -0.019956658039144468 -0.0099994322003460652 0.008865495744610671 0.013575039613776095 0.0050366544835159519 0.014022213282997764 0.00086877279191255059
